{"learner":{"attributes":{"scikit_learn":"{\"_estimator_type\": \"classifier\"}"},"feature_names":["open","high","low","close","Total traded quantity (volume)","SMMA_5","SMMA_20","SMMA_40","SMMA_150","SMMA_diff_5_20","SMMA_diff_20_40","SMMA_diff_40_150","PCA1","PCA2","PCA3","UMAP1","UMAP2","stock_id_encoded","stock_emb_0","stock_emb_1","stock_emb_2","stock_emb_3","stock_emb_4","stock_emb_5","stock_emb_6","stock_emb_7"],"feature_types":["float","float","float","float","int","float","float","float","float","float","float","float","float","float","float","float","float","int","float","float","float","float","float","float","float","float"],"gradient_booster":{"model":{"gbtree_model_param":{"num_parallel_tree":"1","num_trees":"900"},"iteration_indptr":[0,3,6,9,12,15,18,21,24,27,30,33,36,39,42,45,48,51,54,57,60,63,66,69,72,75,78,81,84,87,90,93,96,99,102,105,108,111,114,117,120,123,126,129,132,135,138,141,144,147,150,153,156,159,162,165,168,171,174,177,180,183,186,189,192,195,198,201,204,207,210,213,216,219,222,225,228,231,234,237,240,243,246,249,252,255,258,261,264,267,270,273,276,279,282,285,288,291,294,297,300,303,306,309,312,315,318,321,324,327,330,333,336,339,342,345,348,351,354,357,360,363,366,369,372,375,378,381,384,387,390,393,396,399,402,405,408,411,414,417,420,423,426,429,432,435,438,441,444,447,450,453,456,459,462,465,468,471,474,477,480,483,486,489,492,495,498,501,504,507,510,513,516,519,522,525,528,531,534,537,540,543,546,549,552,555,558,561,564,567,570,573,576,579,582,585,588,591,594,597,600,603,606,609,612,615,618,621,624,627,630,633,636,639,642,645,648,651,654,657,660,663,666,669,672,675,678,681,684,687,690,693,696,699,702,705,708,711,714,717,720,723,726,729,732,735,738,741,744,747,750,753,756,759,762,765,768,771,774,777,780,783,786,789,792,795,798,801,804,807,810,813,816,819,822,825,828,831,834,837,840,843,846,849,852,855,858,861,864,867,870,873,876,879,882,885,888,891,894,897,900],"tree_info":[0,1,2,0,1,2,0,1,2,0,1,2,0,1,2,0,1,2,0,1,2,0,1,2,0,1,2,0,1,2,0,1,2,0,1,2,0,1,2,0,1,2,0,1,2,0,1,2,0,1,2,0,1,2,0,1,2,0,1,2,0,1,2,0,1,2,0,1,2,0,1,2,0,1,2,0,1,2,0,1,2,0,1,2,0,1,2,0,1,2,0,1,2,0,1,2,0,1,2,0,1,2,0,1,2,0,1,2,0,1,2,0,1,2,0,1,2,0,1,2,0,1,2,0,1,2,0,1,2,0,1,2,0,1,2,0,1,2,0,1,2,0,1,2,0,1,2,0,1,2,0,1,2,0,1,2,0,1,2,0,1,2,0,1,2,0,1,2,0,1,2,0,1,2,0,1,2,0,1,2,0,1,2,0,1,2,0,1,2,0,1,2,0,1,2,0,1,2,0,1,2,0,1,2,0,1,2,0,1,2,0,1,2,0,1,2,0,1,2,0,1,2,0,1,2,0,1,2,0,1,2,0,1,2,0,1,2,0,1,2,0,1,2,0,1,2,0,1,2,0,1,2,0,1,2,0,1,2,0,1,2,0,1,2,0,1,2,0,1,2,0,1,2,0,1,2,0,1,2,0,1,2,0,1,2,0,1,2,0,1,2,0,1,2,0,1,2,0,1,2,0,1,2,0,1,2,0,1,2,0,1,2,0,1,2,0,1,2,0,1,2,0,1,2,0,1,2,0,1,2,0,1,2,0,1,2,0,1,2,0,1,2,0,1,2,0,1,2,0,1,2,0,1,2,0,1,2,0,1,2,0,1,2,0,1,2,0,1,2,0,1,2,0,1,2,0,1,2,0,1,2,0,1,2,0,1,2,0,1,2,0,1,2,0,1,2,0,1,2,0,1,2,0,1,2,0,1,2,0,1,2,0,1,2,0,1,2,0,1,2,0,1,2,0,1,2,0,1,2,0,1,2,0,1,2,0,1,2,0,1,2,0,1,2,0,1,2,0,1,2,0,1,2,0,1,2,0,1,2,0,1,2,0,1,2,0,1,2,0,1,2,0,1,2,0,1,2,0,1,2,0,1,2,0,1,2,0,1,2,0,1,2,0,1,2,0,1,2,0,1,2,0,1,2,0,1,2,0,1,2,0,1,2,0,1,2,0,1,2,0,1,2,0,1,2,0,1,2,0,1,2,0,1,2,0,1,2,0,1,2,0,1,2,0,1,2,0,1,2,0,1,2,0,1,2,0,1,2,0,1,2,0,1,2,0,1,2,0,1,2,0,1,2,0,1,2,0,1,2,0,1,2,0,1,2,0,1,2,0,1,2,0,1,2,0,1,2,0,1,2,0,1,2,0,1,2,0,1,2,0,1,2,0,1,2,0,1,2,0,1,2,0,1,2,0,1,2,0,1,2,0,1,2,0,1,2,0,1,2,0,1,2,0,1,2,0,1,2,0,1,2,0,1,2,0,1,2,0,1,2,0,1,2,0,1,2,0,1,2,0,1,2,0,1,2,0,1,2,0,1,2,0,1,2,0,1,2,0,1,2,0,1,2,0,1,2,0,1,2,0,1,2,0,1,2,0,1,2,0,1,2,0,1,2,0,1,2,0,1,2,0,1,2,0,1,2,0,1,2,0,1,2,0,1,2,0,1,2,0,1,2,0,1,2,0,1,2,0,1,2,0,1,2,0,1,2,0,1,2,0,1,2,0,1,2,0,1,2,0,1,2,0,1,2,0,1,2,0,1,2,0,1,2,0,1,2,0,1,2,0,1,2,0,1,2,0,1,2,0,1,2,0,1,2,0,1,2,0,1,2,0,1,2,0,1,2,0,1,2,0,1,2,0,1,2,0,1,2,0,1,2,0,1,2,0,1,2,0,1,2,0,1,2,0,1,2,0,1,2,0,1,2,0,1,2,0,1,2,0,1,2,0,1,2,0,1,2,0,1,2,0,1,2,0,1,2,0,1,2,0,1,2,0,1,2,0,1,2,0,1,2,0,1,2,0,1,2,0,1,2],"trees":[{"base_weights":[3.7484643E-1,-1.9491382E-1,8.940501E-1,-4.5764774E-1,7.672625E-2,6.139843E-1,1.1910785E0,-6.024249E-1,-3.218685E-1,-5.2111052E-2,2.0553502E-1,4.759183E-1,7.6444E-1,1.0487524E0,1.347147E0,-6.7872757E-1,-5.357284E-1,-3.984301E-1,-2.5545332E-1,-1.1417049E-1,2.6614424E-2,1.3670664E-1,2.7460504E-1,4.228808E-1,5.5954635E-1,6.959823E-1,8.285895E-1,9.820033E-1,1.1333394E0,1.2754121E0,1.4237982E0,-3.0427903E-2,-3.5561707E-2,-2.3624217E-2,-2.8854012E-2,-1.7359493E-2,-2.219627E-2,-9.575666E-3,-1.46124605E-2,-7.710253E-3,-3.246215E-3,-2.5345047E-3,2.3514542E-3,4.9803066E-3,9.757816E-3,1.2085515E-2,1.6820777E-2,1.9759445E-2,2.5085866E-2,3.0588416E-2,2.614306E-2,3.333278E-2,3.705073E-2,4.02196E-2,4.4033557E-2,4.706758E-2,5.134765E-2,5.4974962E-2,5.8163047E-2,6.1883736E-2,6.5230854E-2,6.9140084E-2,7.303822E-2],"categories":[],"categories_nodes":[],"categories_segments":[],"categories_sizes":[],"default_left":[0,0,0,0,0,0,0,0,0,0,0,0,0,0,0,0,0,0,0,0,0,0,0,0,0,0,0,0,0,0,0,0,0,0,0,0,0,0,0,0,0,0,0,0,0,0,0,0,0,0,0,0,0,0,0,0,0,0,0,0,0,0,0],"id":0,"left_children":[1,3,5,7,9,11,13,15,17,19,21,23,25,27,29,31,33,35,37,39,41,43,45,47,49,51,53,55,57,59,61,-1,-1,-1,-1,-1,-1,-1,-1,-1,-1,-1,-1,-1,-1,-1,-1,-1,-1,-1,-1,-1,-1,-1,-1,-1,-1,-1,-1,-1,-1,-1,-1],"loss_changes":[3.157619E5,3.6321594E4,4.6457875E4,5.0853438E3,4.152552E3,5.970789E3,6.0189375E3,6.368086E2,6.7874023E2,6.1119086E2,5.948052E2,6.646328E2,6.034844E2,7.9928125E2,7.089844E2,1.3275781E2,1.7445703E2,1.4440918E2,1.6814355E2,1.379076E2,8.702992E1,1.3589087E2,1.26899414E2,2.000625E2,1.1111914E2,8.739258E1,8.877344E1,1.4383594E2,6.2023438E1,7.199219E1,9.2671875E1,0E0,0E0,0E0,0E0,0E0,0E0,0E0,0E0,0E0,0E0,0E0,0E0,0E0,0E0,0E0,0E0,0E0,0E0,0E0,0E0,0E0,0E0,0E0,0E0,0E0,0E0,0E0,0E0,0E0,0E0,0E0,0E0],"parents":[2147483647,0,0,1,1,2,2,3,3,4,4,5,5,6,6,7,7,8,8,9,9,10,10,11,11,12,12,13,13,14,14,15,15,16,16,17,17,18,18,19,19,20,20,21,21,22,22,23,23,24,24,25,25,26,26,27,27,28,28,29,29,30,30],"right_children":[2,4,6,8,10,12,14,16,18,20,22,24,26,28,30,32,34,36,38,40,42,44,46,48,50,52,54,56,58,60,62,-1,-1,-1,-1,-1,-1,-1,-1,-1,-1,-1,-1,-1,-1,-1,-1,-1,-1,-1,-1,-1,-1,-1,-1,-1,-1,-1,-1,-1,-1,-1,-1],"split_conditions":[1.538E2,5.23E1,4.88E2,2.35E1,9.34E1,2.732E2,1.05948E3,1.095E1,3.6E1,7.371508E1,1.13012375E2,2.218E2,3.66E2,7.191E2,1.9656603E3,-1.2870369E-3,-4.029707E-3,-4.029707E-3,-1.1974161E-2,6.865E1,6.865E1,1.1595E2,1.4990024E2,2.0478548E2,3.7499068E0,3.129707E2,4.3390994E2,5.82E2,8.3643634E2,1.325E3,3.2866775E3,-3.0427903E-2,-3.5561707E-2,-2.3624217E-2,-2.8854012E-2,-1.7359493E-2,-2.219627E-2,-9.575666E-3,-1.46124605E-2,-7.710253E-3,-3.246215E-3,-2.5345047E-3,2.3514542E-3,4.9803066E-3,9.757816E-3,1.2085515E-2,1.6820777E-2,1.9759445E-2,2.5085866E-2,3.0588416E-2,2.614306E-2,3.333278E-2,3.705073E-2,4.02196E-2,4.4033557E-2,4.706758E-2,5.134765E-2,5.4974962E-2,5.8163047E-2,6.1883736E-2,6.5230854E-2,6.9140084E-2,7.303822E-2],"split_indices":[1,3,3,1,1,3,3,1,1,8,8,1,1,3,5,14,14,14,14,1,1,1,8,8,11,8,8,2,7,2,6,0,0,0,0,0,0,0,0,0,0,0,0,0,0,0,0,0,0,0,0,0,0,0,0,0,0,0,0,0,0,0,0],"split_type":[0,0,0,0,0,0,0,0,0,0,0,0,0,0,0,0,0,0,0,0,0,0,0,0,0,0,0,0,0,0,0,0,0,0,0,0,0,0,0,0,0,0,0,0,0,0,0,0,0,0,0,0,0,0,0,0,0,0,0,0,0,0,0],"sum_hessian":[1.0674049E6,5.0892484E5,5.5847994E5,2.587031E5,2.5022177E5,2.874493E5,2.7103066E5,1.2520133E5,1.3350177E5,1.2509733E5,1.2512444E5,1.4989866E5,1.3755066E5,1.4176044E5,1.2927021E5,5.839111E4,6.681022E4,6.201155E4,7.149022E4,6.995288E4,5.514444E4,6.267333E4,6.2451105E4,9.172933E4,5.816933E4,6.6546664E4,7.100399E4,7.924177E4,6.2518664E4,6.678577E4,6.248444E4,1.8492443E4,3.9898664E4,2.641822E4,4.0391996E4,2.9168443E4,3.284311E4,2.6115555E4,4.5374664E4,3.8583996E4,3.1368887E4,1.1519999E4,4.362444E4,3.8339996E4,2.4333332E4,4.0762664E4,2.1688443E4,6.788888E4,2.3840443E4,2.3995555E4,3.4173777E4,4.0310664E4,2.6235998E4,4.849111E4,2.2512887E4,4.1621773E4,3.7619996E4,2.9355998E4,3.3162664E4,2.9155555E4,3.763022E4,2.9645332E4,3.283911E4],"tree_param":{"num_deleted":"0","num_feature":"26","num_nodes":"63","size_leaf_vector":"1"}},{"base_weights":[-7.498336E-1],"categories":[],"categories_nodes":[],"categories_segments":[],"categories_sizes":[],"default_left":[0],"id":1,"left_children":[-1],"loss_changes":[0E0],"parents":[2147483647],"right_children":[-1],"split_conditions":[-3.749168E-2],"split_indices":[0],"split_type":[0],"sum_hessian":[1.0676132E6],"tree_param":{"num_deleted":"0","num_feature":"26","num_nodes":"1","size_leaf_vector":"1"}},{"base_weights":[3.7443098E-1,9.4050056E-1,-1.4799643E-1,7.6300216E-1,1.4062147E0,1.3656992E-1,-4.367118E-1,9.260255E-1,5.7442445E-1,1.1980608E0,1.4810779E0,2.7188155E-1,-1.1285153E-2,-2.8428105E-1,-5.8653325E-1,1.2629588E0,8.973657E-1,6.619755E-1,4.9574724E-1,1.0978993E0,1.2500215E0,9.6315384E-1,1.4920304E0,3.284584E-1,1.9548495E-1,5.4408416E-2,-7.6721616E-2,-2.0074916E-1,-3.468498E-1,-5.09698E-1,-6.6965806E-1,5.1579256E-2,6.714717E-2,4.8023183E-2,4.0649213E-2,4.0975392E-2,3.2387167E-2,2.2233164E-2,2.700742E-2,5.0764162E-2,7.0889674E-2,6.0933597E-2,7.0111156E-2,4.1649267E-2,6.92333E-2,7.042296E-2,7.49075E-2,1.6251637E-2,7.429214E-2,9.691874E-3,7.343967E-2,-7.1235606E-4,3.7880074E-3,-6.431476E-3,-2.5592882E-3,-1.3716647E-2,-9.014922E-3,-1.5044178E-2,-1.9058641E-2,-2.356646E-2,-2.7250249E-2,-3.1151945E-2,-3.5289846E-2],"categories":[],"categories_nodes":[],"categories_segments":[],"categories_sizes":[],"default_left":[0,0,0,0,0,0,0,0,0,0,0,0,0,0,0,0,0,0,0,0,0,0,0,0,0,0,0,0,0,0,0,0,0,0,0,0,0,0,0,0,0,0,0,0,0,0,0,0,0,0,0,0,0,0,0,0,0,0,0,0,0,0,0],"id":2,"left_children":[1,3,5,7,9,11,13,15,17,19,21,23,25,27,29,31,33,35,37,39,41,43,45,47,49,51,53,55,57,59,61,-1,-1,-1,-1,-1,-1,-1,-1,-1,-1,-1,-1,-1,-1,-1,-1,-1,-1,-1,-1,-1,-1,-1,-1,-1,-1,-1,-1,-1,-1,-1,-1],"loss_changes":[3.156845E5,4.23505E4,4.5609414E4,1.1403625E4,2.2014062E3,5.5933896E3,6.2929062E3,1.9200938E3,1.1844648E3,1.9328516E2,5.8840625E2,6.309082E2,5.7430865E2,7.138301E2,8.872383E2,2.8720898E2,9.755E2,1.8198438E2,2.052461E2,3.3642383E2,1.1576172E2,1.17147095E2,4.996875E1,3.320371E2,1.3001538E2,9.773149E1,8.871042E1,8.798242E1,1.2309473E2,9.758008E1,1.1201758E2,0E0,0E0,0E0,0E0,0E0,0E0,0E0,0E0,0E0,0E0,0E0,0E0,0E0,0E0,0E0,0E0,0E0,0E0,0E0,0E0,0E0,0E0,0E0,0E0,0E0,0E0,0E0,0E0,0E0,0E0,0E0,0E0],"parents":[2147483647,0,0,1,1,2,2,3,3,4,4,5,5,6,6,7,7,8,8,9,9,10,10,11,11,12,12,13,13,14,14,15,15,16,16,17,17,18,18,19,19,20,20,21,21,22,22,23,23,24,24,25,25,26,26,27,27,28,28,29,29,30,30],"right_children":[2,4,6,8,10,12,14,16,18,20,22,24,26,28,30,32,34,36,38,40,42,44,46,48,50,52,54,56,58,60,62,-1,-1,-1,-1,-1,-1,-1,-1,-1,-1,-1,-1,-1,-1,-1,-1,-1,-1,-1,-1,-1,-1,-1,-1,-1,-1,-1,-1,-1,-1,-1,-1],"split_conditions":[1.56E2,6.130453E0,4.89E2,7.765E1,6.5503435E0,2.732E2,1E3,1.88E1,1.088E2,-5.8002496E0,-7.577912E0,2.18E2,3.66E2,6.2955E2,1.87005E3,-4.1147985E0,5.25E1,-5.452921E0,-1.2972089E-2,2.015E1,6.4277697E0,6.992461E0,-7.0689144E0,6.071559E0,5.906084E0,1.9156E4,3.8879E4,1.7446E4,7.54E2,1.30005E3,3.05E3,5.1579256E-2,6.714717E-2,4.8023183E-2,4.0649213E-2,4.0975392E-2,3.2387167E-2,2.2233164E-2,2.700742E-2,5.0764162E-2,7.0889674E-2,6.0933597E-2,7.0111156E-2,4.1649267E-2,6.92333E-2,7.042296E-2,7.49075E-2,1.6251637E-2,7.429214E-2,9.691874E-3,7.343967E-2,-7.1235606E-4,3.7880074E-3,-6.431476E-3,-2.5592882E-3,-1.3716647E-2,-9.014922E-3,-1.5044178E-2,-1.9058641E-2,-2.356646E-2,-2.7250249E-2,-3.1151945E-2,-3.5289846E-2],"split_indices":[1,16,1,1,16,3,3,3,1,15,15,1,1,3,3,15,1,15,14,1,16,16,15,16,16,4,4,4,3,3,1,0,0,0,0,0,0,0,0,0,0,0,0,0,0,0,0,0,0,0,0,0,0,0,0,0,0,0,0,0,0,0,0],"split_type":[0,0,0,0,0,0,0,0,0,0,0,0,0,0,0,0,0,0,0,0,0,0,0,0,0,0,0,0,0,0,0,0,0,0,0,0,0,0,0,0,0,0,0,0,0,0,0,0,0,0,0,0,0,0,0,0,0,0,0,0,0,0,0],"sum_hessian":[1.0674729E6,5.123364E5,5.5513644E5,3.7095597E5,1.4138044E5,2.795773E5,2.755591E5,1.9895644E5,1.7199955E5,3.740222E4,1.0397822E5,1.4598044E5,1.3359688E5,1.3659155E5,1.3896755E5,1.5593332E4,1.833631E5,8.140533E4,9.059422E4,1.278311E4,2.461911E4,2.155111E3,1.018231E5,8.386755E4,6.2112887E4,6.6667555E4,6.692933E4,5.849822E4,7.809333E4,7.2219555E4,6.674799E4,4.009333E3,1.1583999E4,1.04906664E5,7.845644E4,6.740444E3,7.466488E4,4.2131996E4,4.846222E4,1.0162666E4,2.6204443E3,2.0421777E4,4.197333E3,1.6488888E3,5.062222E2,6.963111E3,9.485999E4,8.362133E4,2.4622221E2,6.2033773E4,7.911111E1,1.581511E4,5.085244E4,2.2067555E4,4.4861773E4,1.2719555E4,4.5778664E4,3.338844E4,4.4704887E4,3.4615996E4,3.7603555E4,2.9155555E4,3.759244E4],"tree_param":{"num_deleted":"0","num_feature":"26","num_nodes":"63","size_leaf_vector":"1"}},{"base_weights":[3.577694E-1,-1.84297E-1,8.4566885E-1,-1.14736E-2,-6.4398164E-1,5.8134913E-1,1.1105351E0,-1.694561E-1,1.6896594E-1,-4.3394676E-1,-7.199138E-1,4.430025E-1,7.076629E-1,9.73147E-1,1.2464322E0,-5.0104415E-1,-1.4164728E-1,8.2188606E-2,2.396423E-1,-3.8131046E-1,-5.1736397E-1,-6.261805E-1,-7.3778796E-1,4.4565094E-1,-7.4473983E-1,6.400131E-1,7.7091974E-1,9.004344E-1,1.033755E0,1.1812625E0,1.3246526E0,-1.995727E-2,-2.9932603E-2,-9.946961E-3,-2.928911E-3,6.4273844E-3,1.9345571E-3,1.5056598E-2,9.794547E-3,-1.5977543E-2,-2.3957858E-2,-3.2525543E-2,-2.430967E-2,-2.203985E-2,-3.5629265E-2,-3.608064E-2,-3.692961E-2,1.9348161E-2,2.4851335E-2,-1.0357678E-2,-3.740194E-2,3.2049518E-2,-3.5421167E-2,4.1463684E-2,3.7454262E-2,4.8692983E-2,4.416799E-2,4.972532E-2,5.3254455E-2,5.7527214E-2,6.09859E-2,6.432413E-2,6.789763E-2],"categories":[],"categories_nodes":[],"categories_segments":[],"categories_sizes":[],"default_left":[0,0,0,0,0,0,0,0,0,0,0,0,0,0,0,0,0,0,0,0,0,0,0,0,0,0,0,0,0,0,0,0,0,0,0,0,0,0,0,0,0,0,0,0,0,0,0,0,0,0,0,0,0,0,0,0,0,0,0,0,0,0,0],"id":3,"left_children":[1,3,5,7,9,11,13,15,17,19,21,23,25,27,29,31,33,35,37,39,41,43,45,47,49,51,53,55,57,59,61,-1,-1,-1,-1,-1,-1,-1,-1,-1,-1,-1,-1,-1,-1,-1,-1,-1,-1,-1,-1,-1,-1,-1,-1,-1,-1,-1,-1,-1,-1,-1,-1],"loss_changes":[2.848639E5,4.0534523E4,3.9685656E4,1.0570598E4,2.2230742E3,4.9578906E3,5.2852188E3,1.823041E3,1.0616514E3,1.623501E2,1.7109375E2,4.263125E2,6.341875E2,6.195781E2,7.240469E2,1.5191504E2,8.6813403E2,1.5668384E2,2.5659863E2,1.3703198E2,5.911328E1,2.624629E2,5.8203125E-1,4.0720117E2,3.8002014E-1,9.489844E1,9.702734E1,7.939844E1,9.338281E1,9.033594E1,8.046094E1,0E0,0E0,0E0,0E0,0E0,0E0,0E0,0E0,0E0,0E0,0E0,0E0,0E0,0E0,0E0,0E0,0E0,0E0,0E0,0E0,0E0,0E0,0E0,0E0,0E0,0E0,0E0,0E0,0E0,0E0,0E0,0E0],"parents":[2147483647,0,0,1,1,2,2,3,3,4,4,5,5,6,6,7,7,8,8,9,9,10,10,11,11,12,12,13,13,14,14,15,15,16,16,17,17,18,18,19,19,20,20,21,21,22,22,23,23,24,24,25,25,26,26,27,27,28,28,29,29,30,30],"right_children":[2,4,6,8,10,12,14,16,18,20,22,24,26,28,30,32,34,36,38,40,42,44,46,48,50,52,54,56,58,60,62,-1,-1,-1,-1,-1,-1,-1,-1,-1,-1,-1,-1,-1,-1,-1,-1,-1,-1,-1,-1,-1,-1,-1,-1,-1,-1,-1,-1,-1,-1,-1,-1],"split_conditions":[1.56E2,6.130453E0,4.89E2,7.765E1,6.5503435E0,2.67E2,1E3,1.935E1,1.07E2,7.6859427E-4,6.992461E0,6.071559E0,3.53E2,6.56E2,1.97E3,1.644641E-2,5.365E1,1.5844355E0,8.238066E-1,2.015E1,-6.62122E-1,1.0156826E1,7.1017118E0,1.997E2,4.1460247E1,5.8297014E0,2.5755E4,1.2937E4,7.75E2,1.399E3,3.3E3,-1.995727E-2,-2.9932603E-2,-9.946961E-3,-2.928911E-3,6.4273844E-3,1.9345571E-3,1.5056598E-2,9.794547E-3,-1.5977543E-2,-2.3957858E-2,-3.2525543E-2,-2.430967E-2,-2.203985E-2,-3.5629265E-2,-3.608064E-2,-3.692961E-2,1.9348161E-2,2.4851335E-2,-1.0357678E-2,-3.740194E-2,3.2049518E-2,-3.5421167E-2,4.1463684E-2,3.7454262E-2,4.8692983E-2,4.416799E-2,4.972532E-2,5.3254455E-2,5.7527214E-2,6.09859E-2,6.432413E-2,6.789763E-2],"split_indices":[1,16,1,1,16,1,5,1,1,14,16,16,1,1,0,14,1,11,11,1,12,7,16,1,7,16,4,4,0,0,0,0,0,0,0,0,0,0,0,0,0,0,0,0,0,0,0,0,0,0,0,0,0,0,0,0,0,0,0,0,0,0,0],"split_type":[0,0,0,0,0,0,0,0,0,0,0,0,0,0,0,0,0,0,0,0,0,0,0,0,0,0,0,0,0,0,0,0,0,0,0,0,0,0,0,0,0,0,0,0,0,0,0,0,0,0,0,0,0,0,0,0,0,0,0,0,0,0,0],"sum_hessian":[1.0770949E6,5.10225E5,5.6686994E5,3.7081438E5,1.3941064E5,2.8372928E5,2.8314062E5,1.9771048E5,1.7310389E5,3.7019164E4,1.02391484E5,1.3541689E5,1.483124E5,1.4080188E5,1.4233877E5,1.5296802E4,1.8241367E5,7.770226E4,9.5401625E4,2.2700629E4,1.4318535E4,1.6404033E4,8.5987445E4,1.3511622E5,3.0065985E2,7.167303E4,7.663937E4,6.40162E4,7.678568E4,7.765571E4,6.4683047E4,7.4863965E3,7.810405E3,1.0795603E5,7.445765E4,3.7612918E4,4.0089344E4,3.9658445E4,5.574318E4,1.391924E4,8.78139E3,2.7124187E3,1.1606117E4,5.2169785E3,1.1187055E4,4.1152104E3,8.187224E4,6.307394E4,7.204229E4,2.2228599E0,2.98437E2,7.162166E4,5.1380108E1,2.0858018E4,5.578135E4,1.2067306E4,5.194889E4,3.410249E4,4.2683188E4,4.3188082E4,3.446763E4,3.0156209E4,3.452684E4],"tree_param":{"num_deleted":"0","num_feature":"26","num_nodes":"63","size_leaf_vector":"1"}},{"base_weights":[-7.360414E-1],"categories":[],"categories_nodes":[],"categories_segments":[],"categories_sizes":[],"default_left":[0],"id":4,"left_children":[-1],"loss_changes":[0E0],"parents":[2147483647],"right_children":[-1],"split_conditions":[-3.6802072E-2],"split_indices":[0],"split_type":[0],"sum_hessian":[1.0475203E6],"tree_param":{"num_deleted":"0","num_feature":"26","num_nodes":"1","size_leaf_vector":"1"}},{"base_weights":[3.575866E-1,8.5673606E-1,-1.7037566E-1,6.935998E-1,1.3120837E0,7.723396E-2,-4.5537338E-1,8.706221E-1,5.171692E-1,1.1188791E0,1.3815044E0,2.0623703E-1,-6.4859726E-2,-3.2423207E-1,-5.9207E-1,1.1797066E0,8.441701E-1,6.11574E-1,4.2686018E-1,1.0754926E0,1.2152652E0,1.2945927E0,6.99025E-2,2.677134E-1,1.2393206E-1,-8.645108E-3,-1.2867694E-1,-2.584937E-1,-3.90018E-1,-5.287574E-1,-6.7032075E-1,5.412477E-2,6.358547E-2,4.4835225E-2,3.8004145E-2,3.297929E-2,2.7553631E-2,2.3369601E-2,1.7275883E-2,5.1015604E-2,5.7709455E-2,6.702618E-2,5.916747E-2,5.6283213E-2,6.870314E-2,1.3267593E-2,7.0693314E-2,6.132083E-3,7.131296E-2,1.1963017E-3,-2.8820185E-3,-8.937504E-3,-5.1803896E-3,-1.6175961E-2,-1.1953651E-2,-1.7675893E-2,-2.090244E-2,-2.532943E-2,-2.8915662E-2,-3.1678464E-2,-3.5083666E-2],"categories":[],"categories_nodes":[],"categories_segments":[],"categories_sizes":[],"default_left":[0,0,0,0,0,0,0,0,0,0,0,0,0,0,0,0,0,0,0,0,0,0,0,0,0,0,0,0,0,0,0,0,0,0,0,0,0,0,0,0,0,0,0,0,0,0,0,0,0,0,0,0,0,0,0,0,0,0,0,0,0],"id":5,"left_children":[1,3,5,7,9,11,13,15,17,19,21,23,25,27,29,31,33,35,37,39,41,43,-1,45,47,49,51,53,55,57,59,-1,-1,-1,-1,-1,-1,-1,-1,-1,-1,-1,-1,-1,-1,-1,-1,-1,-1,-1,-1,-1,-1,-1,-1,-1,-1,-1,-1,-1,-1],"loss_changes":[2.836403E5,4.1096406E4,3.6911113E4,1.2721047E4,1.9556719E3,5.130496E3,4.358996E3,1.6613125E3,1.7389922E3,1.6003125E2,1.525625E2,7.4224854E2,4.778017E2,5.3662695E2,5.895078E2,1.4195508E2,8.266875E2,2.8935156E2,3.4360352E2,1.1438672E2,4.625586E1,2.2911328E2,0E0,2.2691943E2,1.05239136E2,1.1300611E2,7.828088E1,7.8319336E1,6.3316406E1,7.201367E1,6.090625E1,0E0,0E0,0E0,0E0,0E0,0E0,0E0,0E0,0E0,0E0,0E0,0E0,0E0,0E0,0E0,0E0,0E0,0E0,0E0,0E0,0E0,0E0,0E0,0E0,0E0,0E0,0E0,0E0,0E0,0E0],"parents":[2147483647,0,0,1,1,2,2,3,3,4,4,5,5,6,6,7,7,8,8,9,9,10,10,11,11,12,12,13,13,14,14,15,15,16,16,17,17,18,18,19,19,20,20,21,21,23,23,24,24,25,25,26,26,27,27,28,28,29,29,30,30],"right_children":[2,4,6,8,10,12,14,16,18,20,22,24,26,28,30,32,34,36,38,40,42,44,-1,46,48,50,52,54,56,58,60,-1,-1,-1,-1,-1,-1,-1,-1,-1,-1,-1,-1,-1,-1,-1,-1,-1,-1,-1,-1,-1,-1,-1,-1,-1,-1,-1,-1,-1,-1],"split_conditions":[1.713E2,6.130453E0,5.468E2,7.565E1,6.5503435E0,3.06E2,1.1332E3,1.88E1,1.1345E2,2.7489306E-3,6.992461E0,2.397E2,4.114E2,7.54E2,2.24485E3,1.5696611E-2,5.34E1,9.531409E1,1.4990024E2,-6.513308E-1,-6.62122E-1,9.993365E0,6.99025E-2,6.071559E0,5.906084E0,3.5109213E2,4.3138E4,1.7446E4,8.8052106E2,1.7035493E3,3.656E3,5.412477E-2,6.358547E-2,4.4835225E-2,3.8004145E-2,3.297929E-2,2.7553631E-2,2.3369601E-2,1.7275883E-2,5.1015604E-2,5.7709455E-2,6.702618E-2,5.916747E-2,5.6283213E-2,6.870314E-2,1.3267593E-2,7.0693314E-2,6.132083E-3,7.131296E-2,1.1963017E-3,-2.8820185E-3,-8.937504E-3,-5.1803896E-3,-1.6175961E-2,-1.1953651E-2,-1.7675893E-2,-2.090244E-2,-2.532943E-2,-2.8915662E-2,-3.1678464E-2,-3.5083666E-2],"split_indices":[3,16,3,3,16,3,3,3,3,14,16,3,3,3,3,14,3,8,8,12,12,6,0,16,16,8,4,4,6,5,3,0,0,0,0,0,0,0,0,0,0,0,0,0,0,0,0,0,0,0,0,0,0,0,0,0,0,0,0,0,0],"split_type":[0,0,0,0,0,0,0,0,0,0,0,0,0,0,0,0,0,0,0,0,0,0,0,0,0,0,0,0,0,0,0,0,0,0,0,0,0,0,0,0,0,0,0,0,0,0,0,0,0,0,0,0,0,0,0,0,0,0,0,0,0],"sum_hessian":[1.0763014E6,5.532467E5,5.2305462E5,4.0731978E5,1.4592689E5,2.7988644E5,2.4316819E5,2.0331703E5,2.0400277E5,3.8577883E4,1.07349016E5,1.4670052E5,1.3318594E5,1.2410766E5,1.1906053E5,1.6025048E4,1.8729198E5,9.973676E4,1.04266E5,2.6611404E4,1.1966477E4,1.718074E4,9.016827E4,8.397471E4,6.2725805E4,7.081144E4,6.2374492E4,6.2078707E4,6.202895E4,6.581634E4,5.3244188E4,7.7981743E3,8.226874E3,1.1526756E5,7.202442E4,5.5602586E4,4.4134176E4,6.958704E4,3.4678953E4,1.5651108E4,1.0960297E4,2.4215874E3,9.54489E3,5.501468E3,1.1679273E4,8.380328E4,1.7143658E2,6.266481E4,6.0996887E1,4.253528E4,2.8276154E4,2.080747E4,4.1567023E4,1.427307E4,4.7805637E4,2.6949928E4,3.5079023E4,4.5481426E4,2.0334916E4,2.4521385E4,2.8722805E4],"tree_param":{"num_deleted":"0","num_feature":"26","num_nodes":"61","size_leaf_vector":"1"}},{"base_weights":[3.4231293E-1,-1.8100679E-1,7.954304E-1,-4.424206E-1,6.457443E-2,5.4913807E-1,1.0431317E0,-5.904262E-1,-3.2346058E-1,-6.265528E-2,1.8261795E-1,4.2018443E-1,6.6953695E-1,9.199592E-1,1.1723495E0,-2.650671E-1,-6.147173E-1,-4.0256697E-1,-2.577195E-1,-1.2691435E-1,-6.979112E-3,1.17944926E-1,2.384703E-1,3.7059823E-1,4.7947484E-1,6.063523E-1,7.282339E-1,8.470569E-1,9.7714084E-1,1.1120987E0,1.2406967E0,-8.106889E-3,-1.909665E-2,-3.3805966E-2,-2.7414346E-2,-1.3244857E-2,-2.2340212E-2,-6.449491E-3,-1.4384924E-2,-2.1153053E-3,-8.060155E-3,2.6125887E-3,-2.5908276E-3,8.058054E-3,3.6078603E-3,1.4486618E-2,9.654635E-3,2.136577E-2,1.677864E-2,2.6525682E-2,2.2113746E-2,3.3275433E-2,2.9402478E-2,3.9213203E-2,3.5427578E-2,4.523639E-2,4.145072E-2,4.7119867E-2,5.0411224E-2,5.3554814E-2,5.671818E-2,6.0512006E-2,6.376302E-2],"categories":[],"categories_nodes":[],"categories_segments":[],"categories_sizes":[],"default_left":[0,0,0,0,0,0,0,0,0,0,0,0,0,0,0,0,0,0,0,0,0,0,0,0,0,0,0,0,0,0,0,0,0,0,0,0,0,0,0,0,0,0,0,0,0,0,0,0,0,0,0,0,0,0,0,0,0,0,0,0,0,0,0],"id":6,"left_children":[1,3,5,7,9,11,13,15,17,19,21,23,25,27,29,31,33,35,37,39,41,43,45,47,49,51,53,55,57,59,61,-1,-1,-1,-1,-1,-1,-1,-1,-1,-1,-1,-1,-1,-1,-1,-1,-1,-1,-1,-1,-1,-1,-1,-1,-1,-1,-1,-1,-1,-1,-1,-1],"loss_changes":[2.5711189E5,3.2302432E4,3.5451844E4,4.291043E3,3.8964531E3,4.523828E3,4.6103125E3,8.5816797E2,7.0261426E2,4.467197E2,4.8608936E2,4.1347852E2,5.584453E2,6.1753906E2,5.808594E2,9.07171E1,4.1183984E2,3.733662E2,2.847661E2,1.6815149E2,1.7767334E2,1.2339795E2,1.6792236E2,1.5207422E2,1.21424805E2,7.819141E1,8.558594E1,6.710547E1,8.8828125E1,6.739844E1,6.81875E1,0E0,0E0,0E0,0E0,0E0,0E0,0E0,0E0,0E0,0E0,0E0,0E0,0E0,0E0,0E0,0E0,0E0,0E0,0E0,0E0,0E0,0E0,0E0,0E0,0E0,0E0,0E0,0E0,0E0,0E0,0E0,0E0],"parents":[2147483647,0,0,1,1,2,2,3,3,4,4,5,5,6,6,7,7,8,8,9,9,10,10,11,11,12,12,13,13,14,14,15,15,16,16,17,17,18,18,19,19,20,20,21,21,22,22,23,23,24,24,25,25,26,26,27,27,28,28,29,29,30,30],"right_children":[2,4,6,8,10,12,14,16,18,20,22,24,26,28,30,32,34,36,38,40,42,44,46,48,50,52,54,56,58,60,62,-1,-1,-1,-1,-1,-1,-1,-1,-1,-1,-1,-1,-1,-1,-1,-1,-1,-1,-1,-1,-1,-1,-1,-1,-1,-1,-1,-1,-1,-1,-1,-1],"split_conditions":[1.538E2,5.14E1,4.89E2,2.1E1,9.03E1,2.67E2,1.046E3,-7.4489527E0,3.34E1,6.865E1,1.1595E2,2.07E2,3.53E2,6.56E2,1.9656603E3,-7.577912E0,1.095E1,-6.5562897E0,-6.4304814E0,-1.9906335E-2,-4.5153347E-1,3.2408526E0,3.2408526E0,-3.6617228E-1,3.7499068E0,1.9156E4,2.3651E4,2.0369E4,8.09E2,1.28E3,3.7208E3,-8.106889E-3,-1.909665E-2,-3.3805966E-2,-2.7414346E-2,-1.3244857E-2,-2.2340212E-2,-6.449491E-3,-1.4384924E-2,-2.1153053E-3,-8.060155E-3,2.6125887E-3,-2.5908276E-3,8.058054E-3,3.6078603E-3,1.4486618E-2,9.654635E-3,2.136577E-2,1.677864E-2,2.6525682E-2,2.2113746E-2,3.3275433E-2,2.9402478E-2,3.9213203E-2,3.5427578E-2,4.523639E-2,4.145072E-2,4.7119867E-2,5.0411224E-2,5.3554814E-2,5.671818E-2,6.0512006E-2,6.376302E-2],"split_indices":[1,1,1,1,1,1,1,15,1,1,1,1,1,1,5,15,1,15,15,14,11,11,11,11,11,4,4,4,1,1,1,0,0,0,0,0,0,0,0,0,0,0,0,0,0,0,0,0,0,0,0,0,0,0,0,0,0,0,0,0,0,0,0],"split_type":[0,0,0,0,0,0,0,0,0,0,0,0,0,0,0,0,0,0,0,0,0,0,0,0,0,0,0,0,0,0,0,0,0,0,0,0,0,0,0,0,0,0,0,0,0,0,0,0,0,0,0,0,0,0,0,0,0,0,0,0,0,0,0],"sum_hessian":[1.0842854E6,5.031649E5,5.811205E5,2.4372558E5,2.5943934E5,2.913906E5,2.897299E5,1.0860248E5,1.351231E5,1.2486152E5,1.3457783E5,1.4069897E5,1.5069162E5,1.4833897E5,1.4139094E5,7.5457246E3,1.0105675E5,6.1325207E4,7.379789E4,5.796244E4,6.689908E4,6.23658E4,7.221202E4,7.66237E4,6.4075266E4,7.257703E4,7.811459E4,6.521306E4,8.3125914E4,7.5155555E4,6.623538E4,4.0133582E3,3.5323662E3,5.251118E4,4.8545574E4,1.4915135E4,4.6410074E4,1.3940921E4,5.9856973E4,1.6716451E4,4.1245992E4,2.882314E4,3.8075938E4,3.2082562E4,3.0283238E4,3.3904953E4,3.8307066E4,2.9249064E4,4.7374637E4,2.700743E4,3.7067832E4,1.7140875E4,5.5436156E4,2.0296691E4,5.7817902E4,1.5528603E4,4.9684457E4,3.926691E4,4.3859E4,2.6465941E4,4.8689617E4,3.5228793E4,3.1006588E4],"tree_param":{"num_deleted":"0","num_feature":"26","num_nodes":"63","size_leaf_vector":"1"}},{"base_weights":[-7.2325504E-1],"categories":[],"categories_nodes":[],"categories_segments":[],"categories_sizes":[],"default_left":[0],"id":7,"left_children":[-1],"loss_changes":[0E0],"parents":[2147483647],"right_children":[-1],"split_conditions":[-3.6162753E-2],"split_indices":[0],"split_type":[0],"sum_hessian":[1.0250216E6],"tree_param":{"num_deleted":"0","num_feature":"26","num_nodes":"1","size_leaf_vector":"1"}},{"base_weights":[3.4213853E-1,8.096118E-1,-1.6496828E-1,6.543432E-1,1.220846E0,7.339986E-2,-4.435963E-1,8.037173E-1,4.7448933E-1,1.0426567E0,1.2916089E0,2.2120611E-1,-4.0870387E-2,-3.1581664E-1,-5.7758737E-1,9.22373E-1,7.394197E-1,5.491922E-1,3.926848E-1,9.9693036E-1,1.110644E0,8.247686E-1,1.3014336E0,2.7316105E-1,1.6511199E-1,4.1959032E-2,-1.0144135E-1,-2.513742E-1,-3.8073418E-1,-5.0905555E-1,-6.516391E-1,5.6859594E-2,4.397793E-2,3.9266504E-2,3.419889E-2,2.5056407E-2,2.9473979E-2,1.6522948E-2,2.1593215E-2,4.7453143E-2,5.3430766E-2,4.4632707E-2,5.642853E-2,3.5753023E-2,5.8902092E-2,6.1412085E-2,6.5339774E-2,1.3541899E-2,6.5899625E-2,5.854176E-3,1.0126126E-2,-1.0210859E-3,3.1949189E-3,-2.9109814E-3,-7.2466293E-3,-1.5845358E-2,-1.1617872E-2,-1.7385868E-2,-2.048759E-2,-2.4351029E-2,-2.7655391E-2,-3.0801538E-2,-3.4370497E-2],"categories":[],"categories_nodes":[],"categories_segments":[],"categories_sizes":[],"default_left":[0,0,0,0,0,0,0,0,0,0,0,0,0,0,0,0,0,0,0,0,0,0,0,0,0,0,0,0,0,0,0,0,0,0,0,0,0,0,0,0,0,0,0,0,0,0,0,0,0,0,0,0,0,0,0,0,0,0,0,0,0,0,0],"id":8,"left_children":[1,3,5,7,9,11,13,15,17,19,21,23,25,27,29,31,33,35,37,39,41,43,45,47,49,51,53,55,57,59,61,-1,-1,-1,-1,-1,-1,-1,-1,-1,-1,-1,-1,-1,-1,-1,-1,-1,-1,-1,-1,-1,-1,-1,-1,-1,-1,-1,-1,-1,-1,-1,-1],"loss_changes":[2.5697812E5,3.6015156E4,3.4534492E4,1.0999969E4,1.948E3,4.7330957E3,4.104492E3,1.7058594E3,1.1350859E3,1.3552344E2,5.064375E2,3.5605225E2,7.92934E2,5.132832E2,5.935547E2,7.2197656E2,3.6873438E2,1.8772852E2,2.1605078E2,8.918164E1,6.801953E1,8.765332E1,4.0921875E1,1.536084E2,1.0554639E2,9.1366035E1,1.7159454E2,7.6677E1,5.8424805E1,5.873047E1,7.121484E1,0E0,0E0,0E0,0E0,0E0,0E0,0E0,0E0,0E0,0E0,0E0,0E0,0E0,0E0,0E0,0E0,0E0,0E0,0E0,0E0,0E0,0E0,0E0,0E0,0E0,0E0,0E0,0E0,0E0,0E0,0E0,0E0],"parents":[2147483647,0,0,1,1,2,2,3,3,4,4,5,5,6,6,7,7,8,8,9,9,10,10,11,11,12,12,13,13,14,14,15,15,16,16,17,17,18,18,19,19,20,20,21,21,22,22,23,23,24,24,25,25,26,26,27,27,28,28,29,29,30,30],"right_children":[2,4,6,8,10,12,14,16,18,20,22,24,26,28,30,32,34,36,38,40,42,44,46,48,50,52,54,56,58,60,62,-1,-1,-1,-1,-1,-1,-1,-1,-1,-1,-1,-1,-1,-1,-1,-1,-1,-1,-1,-1,-1,-1,-1,-1,-1,-1,-1,-1,-1,-1,-1,-1],"split_conditions":[1.713E2,6.1025286E0,5.468E2,8.44E1,6.5503435E0,2.775E2,1.1549E3,3.99E1,1.238E2,7.6859427E-4,-7.577912E0,2.25E2,3.645E2,7.54E2,2.06E3,1.775E1,6.34E1,1.4641397E0,-2.8786856E-1,-6.505174E-1,-7.4489527E0,6.992461E0,-7.0689144E0,6.071559E0,5.6893363E0,2.3651E4,4.5265E2,1.6903E4,9.027E2,1.66E3,3.7208E3,5.6859594E-2,4.397793E-2,3.9266504E-2,3.419889E-2,2.5056407E-2,2.9473979E-2,1.6522948E-2,2.1593215E-2,4.7453143E-2,5.3430766E-2,4.4632707E-2,5.642853E-2,3.5753023E-2,5.8902092E-2,6.1412085E-2,6.5339774E-2,1.3541899E-2,6.5899625E-2,5.854176E-3,1.0126126E-2,-1.0210859E-3,3.1949189E-3,-2.9109814E-3,-7.2466293E-3,-1.5845358E-2,-1.1617872E-2,-1.7385868E-2,-2.048759E-2,-2.4351029E-2,-2.7655391E-2,-3.0801538E-2,-3.4370497E-2],"split_indices":[3,16,3,1,16,3,1,1,1,14,15,1,3,3,2,1,1,11,11,12,15,16,15,16,11,4,1,4,3,1,1,0,0,0,0,0,0,0,0,0,0,0,0,0,0,0,0,0,0,0,0,0,0,0,0,0,0,0,0,0,0,0,0],"split_type":[0,0,0,0,0,0,0,0,0,0,0,0,0,0,0,0,0,0,0,0,0,0,0,0,0,0,0,0,0,0,0,0,0,0,0,0,0,0,0,0,0,0,0,0,0,0,0,0,0,0,0,0,0,0,0,0,0,0,0,0,0,0,0],"sum_hessian":[1.0840251E6,5.6405444E5,5.199707E5,4.0945875E5,1.5459567E5,2.802315E5,2.3973919E5,2.2368119E5,1.8577756E5,4.394719E4,1.10648484E5,1.2218575E5,1.5804575E5,1.2271565E5,1.1702354E5,7.860647E4,1.4507472E5,9.710072E4,8.867684E4,2.6284604E4,1.7662588E4,2.2823484E3,1.0836613E5,6.3431242E4,5.8754508E4,6.6757164E4,9.1288586E4,6.158562E4,6.1130027E4,6.0781055E4,5.6242484E4,1.305884E4,6.554763E4,7.935189E4,6.572283E4,4.428312E4,5.28176E4,3.4265297E4,5.4411547E4,1.576906E4,1.0515543E4,1.3459808E3,1.6316606E4,1.74383E3,5.385185E2,7.4125796E3,1.00953555E5,6.3291777E4,1.3946414E2,2.5728195E4,3.3026312E4,1.7369643E4,4.9387523E4,4.5787324E4,4.5501266E4,1.3848212E4,4.773741E4,2.8600635E4,3.2529395E4,4.0523312E4,2.0257744E4,2.8194379E4,2.8048105E4],"tree_param":{"num_deleted":"0","num_feature":"26","num_nodes":"63","size_leaf_vector":"1"}},{"base_weights":[3.2771406E-1,-1.8704596E-1,7.438036E-1,-4.4657898E-1,3.4187548E-2,5.026093E-1,9.736403E-1,-5.8569354E-1,-3.36864E-1,-9.0560175E-2,1.5285215E-1,3.910201E-1,6.261527E-1,8.545397E-1,1.0997775E0,-5.087718E-1,-6.338593E-1,-4.1277376E-1,-2.7499947E-1,-1.3444604E-1,-3.7110667E-3,1.0031519E-1,2.2667971E-1,3.2814547E-1,4.4013214E-1,5.736993E-1,6.7794156E-1,7.879516E-1,9.143358E-1,1.0357858E0,1.1607496E0,-2.7946202E-2,-2.3072625E-2,-3.3903766E-2,-2.8945893E-2,-1.7903108E-2,-2.2798045E-2,-1.0155182E-2,-1.5512476E-2,-8.957901E-3,-4.6028644E-3,-7.057821E-3,5.574894E-4,3.5307452E-3,8.238064E-3,1.026062E-2,1.42715275E-2,1.4850604E-2,1.9934034E-2,2.0409508E-2,2.5217598E-2,2.675045E-2,3.012521E-2,3.5183E-2,3.1962965E-2,3.8215913E-2,4.1492667E-2,4.4063278E-2,4.7252234E-2,5.049166E-2,5.3129643E-2,5.598873E-2,5.947947E-2],"categories":[],"categories_nodes":[],"categories_segments":[],"categories_sizes":[],"default_left":[0,0,0,0,0,0,0,0,0,0,0,0,0,0,0,0,0,0,0,0,0,0,0,0,0,0,0,0,0,0,0,0,0,0,0,0,0,0,0,0,0,0,0,0,0,0,0,0,0,0,0,0,0,0,0,0,0,0,0,0,0,0,0],"id":9,"left_children":[1,3,5,7,9,11,13,15,17,19,21,23,25,27,29,31,33,35,37,39,41,43,45,47,49,51,53,55,57,59,61,-1,-1,-1,-1,-1,-1,-1,-1,-1,-1,-1,-1,-1,-1,-1,-1,-1,-1,-1,-1,-1,-1,-1,-1,-1,-1,-1,-1,-1,-1,-1,-1],"loss_changes":[2.3348712E5,2.79784E4,3.341775E4,3.4222305E3,3.8939863E3,4.0549453E3,4.6364062E3,3.6598438E2,5.8861426E2,4.887755E2,5.228716E2,4.7710938E2,3.7882422E2,6.3146875E2,5.837031E2,9.009863E1,1.4729297E2,1.3284082E2,1.7499658E2,1.6144458E2,8.793153E1,1.5075E2,7.06311E1,1.4873633E2,1.7778906E2,7.697461E1,6.942969E1,7.376953E1,8.4109375E1,4.9820312E1,8.936719E1,0E0,0E0,0E0,0E0,0E0,0E0,0E0,0E0,0E0,0E0,0E0,0E0,0E0,0E0,0E0,0E0,0E0,0E0,0E0,0E0,0E0,0E0,0E0,0E0,0E0,0E0,0E0,0E0,0E0,0E0,0E0,0E0],"parents":[2147483647,0,0,1,1,2,2,3,3,4,4,5,5,6,6,7,7,8,8,9,9,10,10,11,11,12,12,13,13,14,14,15,15,16,16,17,17,18,18,19,19,20,20,21,21,22,22,23,23,24,24,25,25,26,26,27,27,28,28,29,29,30,30],"right_children":[2,4,6,8,10,12,14,16,18,20,22,24,26,28,30,32,34,36,38,40,42,44,46,48,50,52,54,56,58,60,62,-1,-1,-1,-1,-1,-1,-1,-1,-1,-1,-1,-1,-1,-1,-1,-1,-1,-1,-1,-1,-1,-1,-1,-1,-1,-1,-1,-1,-1,-1,-1,-1],"split_conditions":[1.423E2,4.69E1,4.617E2,1.88E1,8.585E1,2.67E2,1E3,-1.6132328E-3,3.065E1,7.371508E1,1.13012375E2,1.858E2,3.393E2,6.19E2,1.7845E3,1.1442789E1,9.221594E0,-4.029707E-3,-1.2972089E-2,6.095E1,5.6136543E1,1.116E2,1.602819E2,1.7771066E2,2.32702E2,2.7013834E2,2.9693369E1,5.3064874E2,7.61E2,1.30005E3,2.783328E3,-2.7946202E-2,-2.3072625E-2,-3.3903766E-2,-2.8945893E-2,-1.7903108E-2,-2.2798045E-2,-1.0155182E-2,-1.5512476E-2,-8.957901E-3,-4.6028644E-3,-7.057821E-3,5.574894E-4,3.5307452E-3,8.238064E-3,1.026062E-2,1.42715275E-2,1.4850604E-2,1.9934034E-2,2.0409508E-2,2.5217598E-2,2.675045E-2,3.012521E-2,3.5183E-2,3.1962965E-2,3.8215913E-2,4.1492667E-2,4.4063278E-2,4.7252234E-2,5.049166E-2,5.3129643E-2,5.598873E-2,5.947947E-2],"split_indices":[3,1,1,3,1,1,3,14,1,8,8,3,3,2,3,5,6,14,14,1,6,3,8,8,8,8,11,8,2,3,5,0,0,0,0,0,0,0,0,0,0,0,0,0,0,0,0,0,0,0,0,0,0,0,0,0,0,0,0,0,0,0,0],"split_type":[0,0,0,0,0,0,0,0,0,0,0,0,0,0,0,0,0,0,0,0,0,0,0,0,0,0,0,0,0,0,0,0,0,0,0,0,0,0,0,0,0,0,0,0,0,0,0,0,0,0,0,0,0,0,0,0,0,0,0,0,0,0,0],"sum_hessian":[1.0901109E6,4.872796E5,6.028313E5,2.2423014E5,2.6304947E5,2.941494E5,3.086819E5,9.886662E4,1.2536353E5,1.2823791E5,1.3481155E5,1.545542E5,1.3959519E5,1.5877336E5,1.4990855E5,3.8073688E4,6.0792926E4,5.6289207E4,6.907432E4,8.518991E4,4.3048E4,7.876406E4,5.604749E4,6.7783555E4,8.677066E4,6.935863E4,7.0236555E4,7.512705E4,8.364631E4,7.315189E4,7.675665E4,1.8478307E4,1.9595383E4,3.3678008E4,2.7114918E4,2.4835559E4,3.1453648E4,2.2727068E4,4.6347254E4,4.145725E4,4.3732652E4,4.1994595E3,3.884854E4,5.3917848E4,2.484621E4,4.105182E4,1.499567E4,4.7030215E4,2.0753336E4,5.795301E4,2.8817645E4,2.9608482E4,3.9750152E4,4.217725E4,2.8059303E4,4.8046902E4,2.7080139E4,4.028899E4,4.335733E4,3.7187992E4,3.59639E4,3.1723877E4,4.5032773E4],"tree_param":{"num_deleted":"0","num_feature":"26","num_nodes":"63","size_leaf_vector":"1"}},{"base_weights":[-7.113858E-1,-3.5585046E-2,-3.543472E-2],"categories":[],"categories_nodes":[],"categories_segments":[],"categories_sizes":[],"default_left":[0,0,0],"id":10,"left_children":[1,-1,-1],"loss_changes":[3.75E-1,0E0,0E0],"parents":[2147483647,0,0],"right_children":[2,-1,-1],"split_conditions":[6.4277697E0,-3.5585046E-2,-3.543472E-2],"split_indices":[16,0,0],"split_type":[0,0,0],"sum_hessian":[1.00357725E6,8.981547E5,1.05422555E5],"tree_param":{"num_deleted":"0","num_feature":"26","num_nodes":"3","size_leaf_vector":"1"}},{"base_weights":[3.2725248E-1,7.663237E-1,-1.5855448E-1,6.2329566E-1,1.1585822E0,6.39171E-2,-4.401032E-1,7.6889163E-1,4.6356434E-1,9.8981726E-1,1.2188133E0,1.9550024E-1,-5.984438E-2,-3.135935E-1,-5.650777E-1,8.692455E-1,7.074596E-1,5.400704E-1,3.8537127E-1,9.038453E-1,1.0320601E0,7.895308E-1,1.2277135E0,2.4374412E-1,1.1921954E-1,4.0192734E-3,-1.2467229E-1,-2.4573216E-1,-3.6480087E-1,-4.9806827E-1,-6.380093E-1,4.0254094E-2,4.9563E-2,3.7304565E-2,3.281194E-2,2.8440489E-2,2.239076E-2,2.1410147E-2,1.6940227E-2,4.132289E-2,5.964571E-2,5.0135493E-2,5.860064E-2,3.4151744E-2,5.6692034E-2,5.7957884E-2,6.163589E-2,1.208016E-2,6.288136E-2,5.8913236E-3,6.450251E-2,1.6286745E-3,-2.3385882E-3,-5.1015145E-3,-9.400238E-3,-1.5773622E-2,-1.141956E-2,-1.679771E-2,-2.0096984E-2,-2.3616603E-2,-2.6832953E-2,-2.9808093E-2,-3.35345E-2],"categories":[],"categories_nodes":[],"categories_segments":[],"categories_sizes":[],"default_left":[0,0,0,0,0,0,0,0,0,0,0,0,0,0,0,0,0,0,0,0,0,0,0,0,0,0,0,0,0,0,0,0,0,0,0,0,0,0,0,0,0,0,0,0,0,0,0,0,0,0,0,0,0,0,0,0,0,0,0,0,0,0,0],"id":11,"left_children":[1,3,5,7,9,11,13,15,17,19,21,23,25,27,29,31,33,35,37,39,41,43,45,47,49,51,53,55,57,59,61,-1,-1,-1,-1,-1,-1,-1,-1,-1,-1,-1,-1,-1,-1,-1,-1,-1,-1,-1,-1,-1,-1,-1,-1,-1,-1,-1,-1,-1,-1,-1,-1],"loss_changes":[2.3243538E5,3.2111969E4,3.240284E4,9.754266E3,1.5533906E3,4.705959E3,3.6099805E3,1.3521406E3,1.1963242E3,1.4517578E2,4.2964062E2,5.1541064E2,6.165287E2,3.942373E2,5.6104297E2,6.5146875E2,2.6885156E2,2.677871E2,1.9715332E2,2.957119E2,1.09603516E2,8.327014E1,3.6453125E1,1.8593164E2,8.835773E1,1.087973E2,1.0595056E2,5.8950684E1,6.9149414E1,5.9206055E1,7.481641E1,0E0,0E0,0E0,0E0,0E0,0E0,0E0,0E0,0E0,0E0,0E0,0E0,0E0,0E0,0E0,0E0,0E0,0E0,0E0,0E0,0E0,0E0,0E0,0E0,0E0,0E0,0E0,0E0,0E0,0E0,0E0,0E0],"parents":[2147483647,0,0,1,1,2,2,3,3,4,4,5,5,6,6,7,7,8,8,9,9,10,10,11,11,12,12,13,13,14,14,15,15,16,16,17,17,18,18,19,19,20,20,21,21,22,22,23,23,24,24,25,25,26,26,27,27,28,28,29,29,30,30],"right_children":[2,4,6,8,10,12,14,16,18,20,22,24,26,28,30,32,34,36,38,40,42,44,46,48,50,52,54,56,58,60,62,-1,-1,-1,-1,-1,-1,-1,-1,-1,-1,-1,-1,-1,-1,-1,-1,-1,-1,-1,-1,-1,-1,-1,-1,-1,-1,-1,-1,-1,-1,-1,-1],"split_conditions":[1.681E2,6.130453E0,5.596E2,7.7E1,6.5503435E0,2.91E2,1.11485E3,3.8E1,1.13012375E2,-5.918652E0,-7.577912E0,2.32702E2,3.98E2,7.2305E2,2.06E3,-2.991262E0,5.93E1,1.15E2,1.35E2,-6.4969367E-1,6.4277697E0,6.992461E0,-7.0689144E0,5.9787602E0,5.906084E0,3.5109213E2,5.1201447E2,1.2937E4,9.12E2,1.54E3,3.2866775E3,4.0254094E-2,4.9563E-2,3.7304565E-2,3.281194E-2,2.8440489E-2,2.239076E-2,2.1410147E-2,1.6940227E-2,4.132289E-2,5.964571E-2,5.0135493E-2,5.860064E-2,3.4151744E-2,5.6692034E-2,5.7957884E-2,6.163589E-2,1.208016E-2,6.288136E-2,5.8913236E-3,6.450251E-2,1.6286745E-3,-2.3385882E-3,-5.1015145E-3,-9.400238E-3,-1.5773622E-2,-1.141956E-2,-1.679771E-2,-2.0096984E-2,-2.3616603E-2,-2.6832953E-2,-2.9808093E-2,-3.35345E-2],"split_indices":[2,16,2,2,16,2,2,2,8,15,15,8,2,2,2,15,2,2,2,12,16,16,15,16,16,8,8,4,2,2,6,0,0,0,0,0,0,0,0,0,0,0,0,0,0,0,0,0,0,0,0,0,0,0,0,0,0,0,0,0,0,0,0],"split_type":[0,0,0,0,0,0,0,0,0,0,0,0,0,0,0,0,0,0,0,0,0,0,0,0,0,0,0,0,0,0,0,0,0,0,0,0,0,0,0,0,0,0,0,0,0,0,0,0,0,0,0,0,0,0,0,0,0,0,0,0,0,0,0],"sum_hessian":[1.08969E6,5.7237675E5,5.1731334E5,4.1944016E5,1.5293658E5,2.8897472E5,2.2833861E5,2.1942723E5,2.000129E5,4.02303E4,1.1270627E5,1.4006117E5,1.4891355E5,1.1347409E5,1.1486452E5,8.331411E4,1.3611312E5,1.0109403E5,9.891888E4,1.3262038E4,2.6968264E4,2.2910679E3,1.1041521E5,8.579669E4,5.4264484E4,7.501514E4,7.389841E4,4.8803812E4,6.4670277E4,5.986682E4,5.49977E4,5.460605E4,2.870806E4,7.758412E4,5.852901E4,7.707765E4,2.4016377E4,5.15216E4,4.739728E4,1.0464432E4,2.7976064E3,2.2299807E4,4.668458E3,1.7521172E3,5.389508E2,7.5274106E3,1.028878E5,8.561714E4,1.7955075E2,5.4201094E4,6.338857E1,4.8019445E4,2.6995695E4,5.443864E4,1.9459768E4,9.715151E3,3.908866E4,3.6404195E4,2.8266082E4,3.592297E4,2.3943854E4,2.4124992E4,3.0872709E4],"tree_param":{"num_deleted":"0","num_feature":"26","num_nodes":"63","size_leaf_vector":"1"}},{"base_weights":[3.1450438E-1,-1.8299057E-1,7.0374036E-1,-4.430849E-1,2.4150578E-2,4.7322693E-1,9.1927063E-1,-5.7384235E-1,-3.3354437E-1,-1.0414057E-1,1.3443497E-1,3.5925865E-1,5.78191E-1,8.0785316E-1,1.0399389E0,-2.3735358E-1,-5.9985334E-1,-2.1440597E-1,-3.7216058E-1,-1.6582978E-1,-5.0692987E-2,7.687294E-2,1.9112617E-1,3.134754E-1,4.0706563E-1,5.111555E-1,6.223273E-1,7.464116E-1,8.6626536E-1,9.827861E-1,1.1012536E0,-7.001852E-3,-1.788061E-2,-3.3098098E-2,-2.7179671E-2,-1.4528344E-2,-7.28518E-3,-1.4237556E-2,-2.1768618E-2,-4.557221E-3,-9.953595E-3,1.1915824E-3,-4.4464115E-3,7.292246E-3,2.5773912E-3,1.2375769E-2,7.7834064E-3,1.788318E-2,1.3659179E-2,2.4627391E-2,1.9393517E-2,2.7116744E-2,2.3781938E-2,3.3533007E-2,2.990382E-2,3.588931E-2,3.8750235E-2,4.1559402E-2,4.461932E-2,4.7643483E-2,5.0328005E-2,5.332471E-2,5.6402694E-2],"categories":[],"categories_nodes":[],"categories_segments":[],"categories_sizes":[],"default_left":[0,0,0,0,0,0,0,0,0,0,0,0,0,0,0,0,0,0,0,0,0,0,0,0,0,0,0,0,0,0,0,0,0,0,0,0,0,0,0,0,0,0,0,0,0,0,0,0,0,0,0,0,0,0,0,0,0,0,0,0,0,0,0],"id":12,"left_children":[1,3,5,7,9,11,13,15,17,19,21,23,25,27,29,31,33,35,37,39,41,43,45,47,49,51,53,55,57,59,61,-1,-1,-1,-1,-1,-1,-1,-1,-1,-1,-1,-1,-1,-1,-1,-1,-1,-1,-1,-1,-1,-1,-1,-1,-1,-1,-1,-1,-1,-1,-1,-1],"loss_changes":[2.1199492E5,2.5890645E4,3.0515375E4,3.0513398E3,3.7848997E3,3.5502031E3,4.26675E3,8.498633E2,5.332832E2,4.077185E2,4.6941016E2,3.1132617E2,4.5678906E2,5.916797E2,5.329219E2,8.152341E1,3.146328E2,1.4845837E2,4.83625E2,1.424989E2,1.888014E2,1.2467215E2,1.4486768E2,1.2932373E2,1.1402246E2,6.7671875E1,1.0879297E2,6.528125E1,7.678125E1,5.5132812E1,6.727344E1,0E0,0E0,0E0,0E0,0E0,0E0,0E0,0E0,0E0,0E0,0E0,0E0,0E0,0E0,0E0,0E0,0E0,0E0,0E0,0E0,0E0,0E0,0E0,0E0,0E0,0E0,0E0,0E0,0E0,0E0,0E0,0E0],"parents":[2147483647,0,0,1,1,2,2,3,3,4,4,5,5,6,6,7,7,8,8,9,9,10,10,11,11,12,12,13,13,14,14,15,15,16,16,17,17,18,18,19,19,20,20,21,21,22,22,23,23,24,24,25,25,26,26,27,27,28,28,29,29,30,30],"right_children":[2,4,6,8,10,12,14,16,18,20,22,24,26,28,30,32,34,36,38,40,42,44,46,48,50,52,54,56,58,60,62,-1,-1,-1,-1,-1,-1,-1,-1,-1,-1,-1,-1,-1,-1,-1,-1,-1,-1,-1,-1,-1,-1,-1,-1,-1,-1,-1,-1,-1,-1,-1,-1],"split_conditions":[1.435E2,4.48E1,4.5265E2,1.935E1,8.18E1,2.4935E2,1E3,-7.4489527E0,-6.4304814E0,6.095E1,1.088E2,1.858E2,3.06E2,6.19E2,1.875E3,-7.577912E0,9.221594E0,2.7751232E1,2.4517538E-2,-1.679345E-2,-3.2561455E0,-5.686673E0,-2.8786856E-1,4.3193374E0,-1.7387701E1,1.2796799E1,3.8879E4,5.26E2,7.54E2,1.2548889E3,3.05E3,-7.001852E-3,-1.788061E-2,-3.3098098E-2,-2.7179671E-2,-1.4528344E-2,-7.28518E-3,-1.4237556E-2,-2.1768618E-2,-4.557221E-3,-9.953595E-3,1.1915824E-3,-4.4464115E-3,7.292246E-3,2.5773912E-3,1.2375769E-2,7.7834064E-3,1.788318E-2,1.3659179E-2,2.4627391E-2,1.9393517E-2,2.7116744E-2,2.3781938E-2,3.3533007E-2,2.990382E-2,3.588931E-2,3.8750235E-2,4.1559402E-2,4.461932E-2,4.7643483E-2,5.0328005E-2,5.332471E-2,5.6402694E-2],"split_indices":[1,1,1,1,1,1,3,15,15,1,1,3,3,2,0,15,6,6,13,14,11,11,11,11,11,11,4,3,3,6,1,0,0,0,0,0,0,0,0,0,0,0,0,0,0,0,0,0,0,0,0,0,0,0,0,0,0,0,0,0,0,0,0],"split_type":[0,0,0,0,0,0,0,0,0,0,0,0,0,0,0,0,0,0,0,0,0,0,0,0,0,0,0,0,0,0,0,0,0,0,0,0,0,0,0,0,0,0,0,0,0,0,0,0,0,0,0,0,0,0,0,0,0,0,0,0,0,0,0],"sum_hessian":[1.0947706E6,4.8055656E5,6.142141E5,2.1304631E5,2.6751025E5,2.9679247E5,3.1742166E5,9.7115836E4,1.1593047E5,1.2365982E5,1.4385042E5,1.4229512E5,1.5449734E5,1.6504098E5,1.5238069E5,6.9692188E3,9.014662E4,2.8379822E4,8.755065E4,5.7403082E4,6.625674E4,7.137817E4,7.247224E4,7.268988E4,6.9605234E4,6.134203E4,9.315532E4,8.044147E4,8.459952E4,7.8875836E4,7.350484E4,3.853238E3,3.1159807E3,4.2841094E4,4.7305527E4,1.3457786E4,1.4922036E4,3.674502E4,5.080563E4,1.7681549E4,3.9721535E4,2.2466826E4,4.378991E4,1.9168564E4,5.220961E4,2.797592E4,4.4496324E4,3.4664902E4,3.8024977E4,1.2759391E4,5.6845848E4,3.265804E4,2.8683994E4,3.1115184E4,6.2040133E4,4.021104E4,4.023043E4,3.612323E4,4.847629E4,3.4944117E4,4.393172E4,3.2018375E4,4.148647E4],"tree_param":{"num_deleted":"0","num_feature":"26","num_nodes":"63","size_leaf_vector":"1"}},{"base_weights":[-7.0035475E-1,-3.5040032E-2,-3.4809362E-2],"categories":[],"categories_nodes":[],"categories_segments":[],"categories_sizes":[],"default_left":[0,0,0],"id":13,"left_children":[1,-1,-1],"loss_changes":[1.34375E0,0E0,0E0],"parents":[2147483647,0,0],"right_children":[2,-1,-1],"split_conditions":[6.5503435E0,-3.5040032E-2,-3.4809362E-2],"split_indices":[16,0,0],"split_type":[0,0,0],"sum_hessian":[9.81705E5,8.866743E5,9.503066E4],"tree_param":{"num_deleted":"0","num_feature":"26","num_nodes":"3","size_leaf_vector":"1"}},{"base_weights":[3.13324E-1,7.1995425E-1,-1.6068245E-1,5.844787E-1,1.0978621E0,5.4809835E-2,-4.2831743E-1,7.260232E-1,4.293657E-1,9.368303E-1,1.1551002E0,1.7111087E-1,-6.768977E-2,-3.112779E-1,-5.6253755E-1,8.2449526E-1,6.6756546E-1,4.8826274E-1,3.308965E-1,8.560474E-1,9.780281E-1,7.396128E-1,1.1636837E0,2.299482E-1,1.0472023E-1,-2.1218924E-2,-1.4027499E-1,-2.5118375E-1,-3.721385E-1,-4.9876788E-1,-6.324091E-1,5.1583774E-2,3.9470237E-2,3.5440743E-2,3.1104404E-2,2.7255809E-2,2.278181E-2,1.3851498E-2,1.828649E-2,3.8599283E-2,5.4990556E-2,4.7508527E-2,5.5665124E-2,3.1782094E-2,5.3619456E-2,5.3113878E-2,5.834636E-2,1.1394952E-2,6.0857963E-2,5.1710224E-3,6.4104035E-2,8.4726943E-4,-2.6498656E-3,-8.442776E-3,-5.181366E-3,-1.0239866E-2,-1.3725454E-2,-1.7261093E-2,-2.06101E-2,-2.3752054E-2,-2.7075663E-2,-2.9779116E-2,-3.3209667E-2],"categories":[],"categories_nodes":[],"categories_segments":[],"categories_sizes":[],"default_left":[0,0,0,0,0,0,0,0,0,0,0,0,0,0,0,0,0,0,0,0,0,0,0,0,0,0,0,0,0,0,0,0,0,0,0,0,0,0,0,0,0,0,0,0,0,0,0,0,0,0,0,0,0,0,0,0,0,0,0,0,0,0,0],"id":14,"left_children":[1,3,5,7,9,11,13,15,17,19,21,23,25,27,29,31,33,35,37,39,41,43,45,47,49,51,53,55,57,59,61,-1,-1,-1,-1,-1,-1,-1,-1,-1,-1,-1,-1,-1,-1,-1,-1,-1,-1,-1,-1,-1,-1,-1,-1,-1,-1,-1,-1,-1,-1,-1,-1],"loss_changes":[2.1101808E5,3.0168969E4,2.9155066E4,9.523484E3,1.4322188E3,3.9897102E3,3.541914E3,1.3050703E3,1.2001797E3,1.3489453E2,4.0826562E2,5.611294E2,4.600428E2,4.404414E2,4.6766797E2,6.133906E2,2.6654688E2,2.3998047E2,1.4525293E2,2.8156543E2,1.00697266E2,7.9751465E1,3.5734375E1,1.5378711E2,1.0315875E2,1.008482E2,5.5741577E1,6.552319E1,6.438965E1,5.5442383E1,5.826367E1,0E0,0E0,0E0,0E0,0E0,0E0,0E0,0E0,0E0,0E0,0E0,0E0,0E0,0E0,0E0,0E0,0E0,0E0,0E0,0E0,0E0,0E0,0E0,0E0,0E0,0E0,0E0,0E0,0E0,0E0,0E0,0E0],"parents":[2147483647,0,0,1,1,2,2,3,3,4,4,5,5,6,6,7,7,8,8,9,9,10,10,11,11,12,12,13,13,14,14,15,15,16,16,17,17,18,18,19,19,20,20,21,21,22,22,23,23,24,24,25,25,26,26,27,27,28,28,29,29,30,30],"right_children":[2,4,6,8,10,12,14,16,18,20,22,24,26,28,30,32,34,36,38,40,42,44,46,48,50,52,54,56,58,60,62,-1,-1,-1,-1,-1,-1,-1,-1,-1,-1,-1,-1,-1,-1,-1,-1,-1,-1,-1,-1,-1,-1,-1,-1,-1,-1,-1,-1,-1,-1,-1,-1],"split_conditions":[1.816E2,6.130453E0,5.596E2,8.18E1,6.5503435E0,3.18E2,1.215E3,3.99E1,1.342E2,-5.8002496E0,-7.577912E0,2.45E2,4.5265E2,7.8E2,2.209E3,1.58E1,6.095E1,9.83E1,-7.790232E-2,-6.505174E-1,6.4277697E0,6.992461E0,-7.330798E0,6.071559E0,5.906084E0,3.73E2,3.263723E1,6.19E2,1E3,1.735E3,3.7208E3,5.1583774E-2,3.9470237E-2,3.5440743E-2,3.1104404E-2,2.7255809E-2,2.278181E-2,1.3851498E-2,1.828649E-2,3.8599283E-2,5.4990556E-2,4.7508527E-2,5.5665124E-2,3.1782094E-2,5.3619456E-2,5.3113878E-2,5.834636E-2,1.1394952E-2,6.0857963E-2,5.1710224E-3,6.4104035E-2,8.4726943E-4,-2.6498656E-3,-8.442776E-3,-5.181366E-3,-1.0239866E-2,-1.3725454E-2,-1.7261093E-2,-2.06101E-2,-2.3752054E-2,-2.7075663E-2,-2.9779116E-2,-3.3209667E-2],"split_indices":[1,16,2,1,16,1,0,1,1,15,15,1,1,2,2,0,1,1,11,12,16,16,15,16,16,1,11,2,5,1,1,0,0,0,0,0,0,0,0,0,0,0,0,0,0,0,0,0,0,0,0,0,0,0,0,0,0,0,0,0,0,0,0],"split_type":[0,0,0,0,0,0,0,0,0,0,0,0,0,0,0,0,0,0,0,0,0,0,0,0,0,0,0,0,0,0,0,0,0,0,0,0,0,0,0,0,0,0,0,0,0,0,0,0,0,0,0,0,0,0,0,0,0,0,0,0,0,0,0],"sum_hessian":[1.0948006E6,5.892808E5,5.0551984E5,4.3377872E5,1.555021E5,2.800401E5,2.2547975E5,2.2680752E5,2.0697122E5,4.0782695E4,1.147194E5,1.4365436E5,1.3638575E5,1.2045054E5,1.0502921E5,8.4482875E4,1.4232462E5,1.29506195E5,7.746503E4,1.3781326E4,2.7001367E4,2.323721E3,1.1239568E5,7.615825E4,6.749611E4,8.3151445E4,5.3234305E4,6.0609496E4,5.9841043E4,5.4916617E4,5.0112594E4,1.2232406E4,7.225047E4,7.4623914E4,6.770072E4,4.7215348E4,8.229084E4,3.0424803E4,4.7040223E4,1.0250586E4,3.5307412E3,2.2397076E4,4.6042905E3,1.7727593E3,5.5096173E2,3.4939382E3,1.0890174E5,7.600173E4,1.5652461E2,6.742276E4,7.334526E1,3.7779977E4,4.537147E4,2.9907025E4,2.332728E4,2.0283004E4,4.0326492E4,3.5799086E4,2.4041957E4,3.5322277E4,1.9594338E4,2.3223932E4,2.688866E4],"tree_param":{"num_deleted":"0","num_feature":"26","num_nodes":"63","size_leaf_vector":"1"}},{"base_weights":[3.020761E-1,-1.7572308E-1,6.6917235E-1,-1.8231753E-2,-5.976501E-1,4.5491078E-1,8.7476325E-1,-1.497048E-1,1.1834987E-1,-3.8559118E-1,-6.761039E-1,3.4330583E-1,5.5432487E-1,7.692077E-1,9.8779804E-1,-4.7494578E-1,-1.2582287E-1,6.258857E-2,1.9156323E-1,-3.47259E-1,-5.015972E-1,-5.7833934E-1,-6.9488233E-1,3.461794E-1,-3.655985E-2,4.9030262E-1,5.992616E-1,7.067501E-1,8.186487E-1,9.373412E-1,1.0481802E0,-2.8695542E-2,-1.9440336E-2,-9.367798E-3,-3.8951617E-3,9.217689E-4,5.5514365E-3,1.0927454E-2,7.0915855E-3,-1.3811059E-2,-2.2775186E-2,-2.0537168E-2,-3.0389471E-2,-1.9324549E-2,-3.343681E-2,-3.4513883E-2,-3.5200458E-2,1.573244E-2,2.0695498E-2,2.4569446E-2,-3.7155148E-2,3.254E-2,2.8990362E-2,3.8050357E-2,3.4548514E-2,3.9127324E-2,4.2131215E-2,4.549062E-2,4.824665E-2,5.071767E-2,5.3536154E-2],"categories":[],"categories_nodes":[],"categories_segments":[],"categories_sizes":[],"default_left":[0,0,0,0,0,0,0,0,0,0,0,0,0,0,0,0,0,0,0,0,0,0,0,0,0,0,0,0,0,0,0,0,0,0,0,0,0,0,0,0,0,0,0,0,0,0,0,0,0,0,0,0,0,0,0,0,0,0,0,0,0],"id":15,"left_children":[1,3,5,7,9,11,13,15,17,19,21,23,25,27,29,31,33,35,37,39,41,43,45,47,-1,49,51,53,55,57,59,-1,-1,-1,-1,-1,-1,-1,-1,-1,-1,-1,-1,-1,-1,-1,-1,-1,-1,-1,-1,-1,-1,-1,-1,-1,-1,-1,-1,-1,-1],"loss_changes":[1.92487E5,3.168454E4,2.7337594E4,6.2349097E3,2.1559297E3,3.3715938E3,3.7780781E3,1.374123E3,6.9523315E2,1.5547217E2,1.7327734E2,4.423203E2,4.6210938E2,5.0517188E2,4.6496875E2,1.0294116E2,4.859702E2,2.0676202E2,9.878076E1,2.0220093E2,8.360181E1,2.641997E2,2.8515625E0,3.048164E2,0E0,8.918848E1,9.430469E1,6.1433594E1,7.846094E1,6.2414062E1,5.1984375E1,0E0,0E0,0E0,0E0,0E0,0E0,0E0,0E0,0E0,0E0,0E0,0E0,0E0,0E0,0E0,0E0,0E0,0E0,0E0,0E0,0E0,0E0,0E0,0E0,0E0,0E0,0E0,0E0,0E0,0E0],"parents":[2147483647,0,0,1,1,2,2,3,3,4,4,5,5,6,6,7,7,8,8,9,9,10,10,11,11,12,12,13,13,14,14,15,15,16,16,17,17,18,18,19,19,20,20,21,21,22,22,23,23,25,25,26,26,27,27,28,28,29,29,30,30],"right_children":[2,4,6,8,10,12,14,16,18,20,22,24,26,28,30,32,34,36,38,40,42,44,46,48,-1,50,52,54,56,58,60,-1,-1,-1,-1,-1,-1,-1,-1,-1,-1,-1,-1,-1,-1,-1,-1,-1,-1,-1,-1,-1,-1,-1,-1,-1,-1,-1,-1,-1,-1],"split_conditions":[1.435E2,6.130453E0,4.617E2,7.24E1,6.5503435E0,2.4935E2,1E3,1.73E1,1.04604095E2,2.815646E6,6.992461E0,6.15585E0,3.18E2,6.061E2,2E3,1.065E1,4.285E1,9.34E1,2.7388349E0,-6.505174E-1,6.1888003E0,1.0156826E1,2.1E1,2.0478548E2,-3.655985E-2,5.906084E0,2.5755E4,1.9755E4,7.2305E2,1.325E3,2.9601E3,-2.8695542E-2,-1.9440336E-2,-9.367798E-3,-3.8951617E-3,9.217689E-4,5.5514365E-3,1.0927454E-2,7.0915855E-3,-1.3811059E-2,-2.2775186E-2,-2.0537168E-2,-3.0389471E-2,-1.9324549E-2,-3.343681E-2,-3.4513883E-2,-3.5200458E-2,1.573244E-2,2.0695498E-2,2.4569446E-2,-3.7155148E-2,3.254E-2,2.8990362E-2,3.8050357E-2,3.4548514E-2,3.9127324E-2,4.2131215E-2,4.549062E-2,4.824665E-2,5.071767E-2,5.3536154E-2],"split_indices":[1,16,1,1,16,1,5,0,8,4,16,16,1,2,1,0,1,1,16,12,16,7,1,8,0,16,4,4,2,2,2,0,0,0,0,0,0,0,0,0,0,0,0,0,0,0,0,0,0,0,0,0,0,0,0,0,0,0,0,0,0],"split_type":[0,0,0,0,0,0,0,0,0,0,0,0,0,0,0,0,0,0,0,0,0,0,0,0,0,0,0,0,0,0,0,0,0,0,0,0,0,0,0,0,0,0,0,0,0,0,0,0,0,0,0,0,0,0,0,0,0,0,0,0,0],"sum_hessian":[1.0974264E6,4.7681797E5,6.2060844E5,3.4721516E5,1.2960282E5,3.038975E5,3.1671094E5,1.7691612E5,1.7029902E5,3.5001223E4,9.46016E4,1.4317253E5,1.6072497E5,1.6377778E5,1.5293317E5,1.2100745E4,1.6481538E5,9.667248E4,7.362654E4,2.631116E4,8.690063E3,1.5248151E4,7.9353445E4,1.4279134E5,3.811909E2,6.6290875E4,9.443409E4,7.2369914E4,9.140786E4,8.332304E4,6.961013E4,5.628504E3,6.472241E3,7.2156766E4,9.265862E4,5.0574875E4,4.6097605E4,4.7725723E4,2.5900816E4,1.5887929E4,1.0423231E4,4.6858765E3,4.0041868E3,4.885331E3,1.036282E4,5.2794316E4,2.655913E4,9.743709E4,4.535425E4,6.623314E4,5.773296E1,2.5869104E4,6.856499E4,1.6294823E4,5.6075094E4,3.649206E4,5.49158E4,4.172611E4,4.1596934E4,2.7856219E4,4.1753918E4],"tree_param":{"num_deleted":"0","num_feature":"26","num_nodes":"61","size_leaf_vector":"1"}},{"base_weights":[-6.900686E-1,-6.9063616E-1,-3.423725E-2,-3.4555893E-2,-3.444619E-2],"categories":[],"categories_nodes":[],"categories_segments":[],"categories_sizes":[],"default_left":[0,0,0,0,0],"id":16,"left_children":[1,3,-1,-1,-1],"loss_changes":[2.4375E0,2.5E-1,0E0,0E0,0E0],"parents":[2147483647,0,0,1,1],"right_children":[2,4,-1,-1,-1],"split_conditions":[6.5503435E0,6.56E2,-3.423725E-2,-3.4555893E-2,-3.444619E-2],"split_indices":[16,1,0,0,0],"split_type":[0,0,0,0,0],"sum_hessian":[9.58417E5,8.659619E5,9.245507E4,6.755597E5,1.904022E5],"tree_param":{"num_deleted":"0","num_feature":"26","num_nodes":"5","size_leaf_vector":"1"}},{"base_weights":[3.017797E-1,6.793717E-1,-1.6039065E-1,5.511335E-1,1.0439037E0,4.235765E-2,-4.25248E-1,6.8125427E-1,3.9705634E-1,8.8948745E-1,1.099213E0,1.6124761E-1,-6.922912E-2,-3.1762108E-1,-5.596644E-1,7.743719E-1,6.2326205E-1,4.6205088E-1,3.163411E-1,8.1156135E-1,9.2935544E-1,7.033014E-1,1.1074655E0,2.1719113E-1,1.0497828E-1,-1.7596796E-2,-1.3952112E-1,-2.62282E-1,-3.8222444E-1,-5.002164E-1,-6.2556875E-1,3.605548E-2,4.458216E-2,2.8888727E-2,3.314163E-2,2.0737857E-2,2.4669752E-2,1.3600721E-2,1.785678E-2,3.7054244E-2,5.3728748E-2,4.51329E-2,5.295937E-2,3.0323168E-2,5.0651975E-2,5.2017268E-2,5.5619176E-2,1.0764982E-2,5.861516E-2,5.1873587E-3,6.1610818E-2,-3.9483113E-3,2.643022E-4,-1.0355889E-2,-6.0175513E-3,-1.1917266E-2,-1.5137968E-2,-1.7724462E-2,-2.0977473E-2,-2.3643991E-2,-2.6618158E-2,-2.9689241E-2,-3.287025E-2],"categories":[],"categories_nodes":[],"categories_segments":[],"categories_sizes":[],"default_left":[0,0,0,0,0,0,0,0,0,0,0,0,0,0,0,0,0,0,0,0,0,0,0,0,0,0,0,0,0,0,0,0,0,0,0,0,0,0,0,0,0,0,0,0,0,0,0,0,0,0,0,0,0,0,0,0,0,0,0,0,0,0,0],"id":17,"left_children":[1,3,5,7,9,11,13,15,17,19,21,23,25,27,29,31,33,35,37,39,41,43,45,47,49,51,53,55,57,59,61,-1,-1,-1,-1,-1,-1,-1,-1,-1,-1,-1,-1,-1,-1,-1,-1,-1,-1,-1,-1,-1,-1,-1,-1,-1,-1,-1,-1,-1,-1,-1,-1],"loss_changes":[1.913664E5,2.8211781E4,2.6477512E4,8.950578E3,1.3403906E3,3.7051055E3,3.0926719E3,1.3065781E3,1.0722207E3,1.2794531E2,3.7701562E2,4.256245E2,5.2286206E2,4.243623E2,3.721289E2,5.7953906E2,2.6810156E2,1.6764844E2,1.6478809E2,2.5923535E2,9.400781E1,7.028711E1,3.6234375E1,1.2224048E2,9.3424866E1,1.1663977E2,7.903223E1,6.1890625E1,5.655713E1,4.367285E1,4.522461E1,0E0,0E0,0E0,0E0,0E0,0E0,0E0,0E0,0E0,0E0,0E0,0E0,0E0,0E0,0E0,0E0,0E0,0E0,0E0,0E0,0E0,0E0,0E0,0E0,0E0,0E0,0E0,0E0,0E0,0E0,0E0,0E0],"parents":[2147483647,0,0,1,1,2,2,3,3,4,4,5,5,6,6,7,7,8,8,9,9,10,10,11,11,12,12,13,13,14,14,15,15,16,16,17,17,18,18,19,19,20,20,21,21,22,22,23,23,24,24,25,25,26,26,27,27,28,28,29,29,30,30],"right_children":[2,4,6,8,10,12,14,16,18,20,22,24,26,28,30,32,34,36,38,40,42,44,46,48,50,52,54,56,58,60,62,-1,-1,-1,-1,-1,-1,-1,-1,-1,-1,-1,-1,-1,-1,-1,-1,-1,-1,-1,-1,-1,-1,-1,-1,-1,-1,-1,-1,-1,-1,-1,-1],"split_conditions":[1.832E2,6.130453E0,5.9215E2,8.585E1,6.5503435E0,3.18E2,1.30005E3,4.185E1,1.32E2,-5.8002496E0,-7.577912E0,2.45E2,4.43E2,8.44E2,2.457E3,-2.5693984E0,1.4527368E-2,-2.1330433E-1,4.3193374E0,1.96E1,6.4277697E0,6.992461E0,-7.0689144E0,6.040127E0,5.906084E0,2.5755E4,1.9156E4,7.358E2,1.05948E3,1.703E3,4.05E3,3.605548E-2,4.458216E-2,2.8888727E-2,3.314163E-2,2.0737857E-2,2.4669752E-2,1.3600721E-2,1.785678E-2,3.7054244E-2,5.3728748E-2,4.51329E-2,5.295937E-2,3.0323168E-2,5.0651975E-2,5.2017268E-2,5.5619176E-2,1.0764982E-2,5.861516E-2,5.1873587E-3,6.1610818E-2,-3.9483113E-3,2.643022E-4,-1.0355889E-2,-6.0175513E-3,-1.1917266E-2,-1.5137968E-2,-1.7724462E-2,-2.0977473E-2,-2.3643991E-2,-2.6618158E-2,-2.9689241E-2,-3.287025E-2],"split_indices":[3,16,3,1,16,1,3,1,1,15,15,1,3,2,1,15,11,11,11,3,16,16,15,16,16,4,4,3,3,3,2,0,0,0,0,0,0,0,0,0,0,0,0,0,0,0,0,0,0,0,0,0,0,0,0,0,0,0,0,0,0,0,0],"split_type":[0,0,0,0,0,0,0,0,0,0,0,0,0,0,0,0,0,0,0,0,0,0,0,0,0,0,0,0,0,0,0,0,0,0,0,0,0,0,0,0,0,0,0,0,0,0,0,0,0,0,0,0,0,0,0,0,0,0,0,0,0,0,0],"sum_hessian":[1.0965796E6,6.035116E5,4.9306797E5,4.46456E5,1.5705561E5,2.7928E5,2.1378798E5,2.4204317E5,2.0441283E5,4.1423527E4,1.1563208E5,1.3521497E5,1.4406503E5,1.18726945E5,9.506103E4,9.288541E4,1.4915777E5,1.1323089E5,9.118193E4,1.4027218E4,2.7396307E4,2.3628206E3,1.1326926E5,6.780235E4,6.741261E4,8.305732E4,6.1007715E4,6.3951414E4,5.4775535E4,4.99831E4,4.507793E4,6.3879664E4,2.9005746E4,6.9398195E4,7.975956E4,4.513818E4,6.809272E4,4.370278E4,4.747915E4,1.1065855E4,2.9613623E3,2.2730238E4,4.6660693E3,1.8022988E3,5.605216E2,7.747256E3,1.05522E5,6.766957E4,1.3278703E2,6.734016E4,7.245272E1,2.2557627E4,6.0499695E4,1.3476774E4,4.753094E4,4.019095E4,2.3760467E4,3.1430723E4,2.334481E4,2.7021014E4,2.2962088E4,2.2567355E4,2.2510572E4],"tree_param":{"num_deleted":"0","num_feature":"26","num_nodes":"63","size_leaf_vector":"1"}},{"base_weights":[2.903485E-1,-1.688788E-1,6.375386E-1,-1.6557552E-2,-5.854403E-1,4.3109432E-1,8.297552E-1,-1.5360424E-1,1.0674579E-1,-3.736178E-1,-6.6477704E-1,3.292006E-1,5.2429986E-1,7.2910714E-1,9.3944764E-1,-4.6498394E-1,-1.2945108E-1,3.591786E-2,1.6843237E-1,-2.7361232E-1,-4.25706E-1,-1.377271E-1,-6.7646676E-1,3.319015E-1,-3.5880174E-2,4.7390226E-1,5.719781E-1,6.715361E-1,7.7826196E-1,8.8496554E-1,9.9156266E-1,-1.2190097E-2,-2.6840383E-2,-9.53764E-3,-4.3824506E-3,-2.2584976E-4,4.6915947E-3,6.750013E-3,1.1648516E-2,-9.391931E-3,-3.027727E-2,-1.9591657E-2,-2.962721E-2,-7.315399E-4,-2.7925013E-2,-2.9234609E-2,-3.4161676E-2,1.5634952E-2,2.134567E-2,2.3746917E-2,-3.6817435E-2,3.1084022E-2,2.7681215E-2,3.263951E-2,3.5458848E-2,3.7362758E-2,4.0205833E-2,4.2892262E-2,4.535001E-2,4.797603E-2,5.0994843E-2],"categories":[],"categories_nodes":[],"categories_segments":[],"categories_sizes":[],"default_left":[0,0,0,0,0,0,0,0,0,0,0,0,0,0,0,0,0,0,0,0,0,0,0,0,0,0,0,0,0,0,0,0,0,0,0,0,0,0,0,0,0,0,0,0,0,0,0,0,0,0,0,0,0,0,0,0,0,0,0,0,0],"id":18,"left_children":[1,3,5,7,9,11,13,15,17,19,21,23,25,27,29,31,33,35,37,39,41,43,45,47,-1,49,51,53,55,57,59,-1,-1,-1,-1,-1,-1,-1,-1,-1,-1,-1,-1,-1,-1,-1,-1,-1,-1,-1,-1,-1,-1,-1,-1,-1,-1,-1,-1,-1,-1],"loss_changes":[1.7513319E5,3.0006873E4,2.4821547E4,5.85172E3,2.1277227E3,2.8641445E3,3.5754844E3,1.2333892E3,7.9642163E2,1.7962695E2,5.6746484E2,4.0761523E2,3.7820703E2,4.7752344E2,4.3920312E2,1.8741187E2,3.9000293E2,1.9871268E2,2.1018652E2,3.3641882E2,1.2797656E2,1.0358841E2,5.5570312E1,2.6207227E2,0E0,9.637695E1,7.348828E1,5.4441406E1,7.244531E1,4.451172E1,7.09375E1,0E0,0E0,0E0,0E0,0E0,0E0,0E0,0E0,0E0,0E0,0E0,0E0,0E0,0E0,0E0,0E0,0E0,0E0,0E0,0E0,0E0,0E0,0E0,0E0,0E0,0E0,0E0,0E0,0E0,0E0],"parents":[2147483647,0,0,1,1,2,2,3,3,4,4,5,5,6,6,7,7,8,8,9,9,10,10,11,11,12,12,13,13,14,14,15,15,16,16,17,17,18,18,19,19,20,20,21,21,22,22,23,23,25,25,26,26,27,27,28,28,29,29,30,30],"right_children":[2,4,6,8,10,12,14,16,18,20,22,24,26,28,30,32,34,36,38,40,42,44,46,48,-1,50,52,54,56,58,60,-1,-1,-1,-1,-1,-1,-1,-1,-1,-1,-1,-1,-1,-1,-1,-1,-1,-1,-1,-1,-1,-1,-1,-1,-1,-1,-1,-1,-1,-1],"split_conditions":[1.435E2,6.130453E0,4.5265E2,6.865E1,6.5503435E0,2.4935E2,1E3,1.775E1,9.83E1,-5.8002496E0,-7.577912E0,6.15585E0,3.2230777E2,6.1655E2,1.7845E3,-3.5708575E0,3.99E1,8.501137E1,1.2471713E2,2.015E1,6.4277697E0,6.992461E0,-7.0689144E0,2.3642279E2,-3.5880174E-2,5.906084E0,2.3651E4,5.3064874E2,7.54E2,1.256E3,3.05E3,-1.2190097E-2,-2.6840383E-2,-9.53764E-3,-4.3824506E-3,-2.2584976E-4,4.6915947E-3,6.750013E-3,1.1648516E-2,-9.391931E-3,-3.027727E-2,-1.9591657E-2,-2.962721E-2,-7.315399E-4,-2.7925013E-2,-2.9234609E-2,-3.4161676E-2,1.5634952E-2,2.134567E-2,2.3746917E-2,-3.6817435E-2,3.1084022E-2,2.7681215E-2,3.263951E-2,3.5458848E-2,3.7362758E-2,4.0205833E-2,4.2892262E-2,4.535001E-2,4.797603E-2,5.0994843E-2],"split_indices":[1,16,1,1,16,1,3,1,1,15,15,16,5,3,3,15,1,8,8,1,16,16,15,8,0,16,4,8,3,3,1,0,0,0,0,0,0,0,0,0,0,0,0,0,0,0,0,0,0,0,0,0,0,0,0,0,0,0,0,0,0],"split_type":[0,0,0,0,0,0,0,0,0,0,0,0,0,0,0,0,0,0,0,0,0,0,0,0,0,0,0,0,0,0,0,0,0,0,0,0,0,0,0,0,0,0,0,0,0,0,0,0,0,0,0,0,0,0,0,0,0,0,0,0,0],"sum_hessian":[1.0984309E6,4.7291203E5,6.255188E5,3.462882E5,1.2662384E5,3.01599E5,3.239198E5,1.6400406E5,1.8228412E5,3.4504754E4,9.2119086E4,1.4408625E5,1.5751275E5,1.6892798E5,1.5499184E5,1.1804431E4,1.5219962E5,8.485548E4,9.742866E4,1.1819137E4,2.268562E4,1.9991031E3,9.0119984E4,1.4371612E5,3.701233E2,7.6577984E4,8.093477E4,7.781004E4,9.1117945E4,7.5783836E4,7.9208E4,2.8946665E3,8.909764E3,6.1705883E4,9.049375E4,4.9968805E4,3.4886676E4,6.418334E4,3.3245312E4,9.393389E3,2.4257478E3,1.8859879E4,3.8257405E3,1.5474381E3,4.5166495E2,6.1944473E3,8.392554E4,1.195572E5,2.4158922E4,7.6513086E4,6.489555E1,2.1818162E4,5.911661E4,5.1954133E4,2.5855904E4,4.144451E4,4.9673438E4,3.398944E4,4.1794395E4,3.7188152E4,4.2019848E4],"tree_param":{"num_deleted":"0","num_feature":"26","num_nodes":"61","size_leaf_vector":"1"}},{"base_weights":[-6.804565E-1,-6.81067E-1,-3.3735834E-2,-3.4081455E-2,-3.3945095E-2],"categories":[],"categories_nodes":[],"categories_segments":[],"categories_sizes":[],"default_left":[0,0,0,0,0],"id":19,"left_children":[1,3,-1,-1,-1],"loss_changes":[2.8125E0,5.9375E-1,0E0,0E0,0E0],"parents":[2147483647,0,0,1,1],"right_children":[2,4,-1,-1,-1],"split_conditions":[6.5503435E0,6.76E2,-3.3735834E-2,-3.4081455E-2,-3.3945095E-2],"split_indices":[16,2,0,0,0],"split_type":[0,0,0,0,0],"sum_hessian":[9.3648794E5,8.4635106E5,9.013689E4,6.7165756E5,1.746935E5],"tree_param":{"num_deleted":"0","num_feature":"26","num_nodes":"5","size_leaf_vector":"1"}},{"base_weights":[2.8986937E-1,6.4747566E-1,-1.5394953E-1,5.231513E-1,9.8737067E-1,3.45059E-2,-4.2100167E-1,6.4891213E-1,3.819352E-1,8.379113E-1,1.0469122E0,1.4715776E-1,-7.90558E-2,-3.0920795E-1,-5.4264396E-1,8.991707E-1,6.301508E-1,4.472497E-1,3.0787176E-1,7.717932E-1,8.691534E-1,6.59642E-1,1.0549927E0,2.0060469E-1,8.4913194E-2,-2.2844013E-2,-1.3992761E-1,-2.5740102E-1,-3.621266E-1,-4.885375E-1,-6.2081146E-1,3.6036905E-2,4.791751E-2,3.38179E-2,2.8442943E-2,2.3864197E-2,1.8912591E-2,1.6951002E-2,1.3082606E-2,3.443822E-2,4.9561437E-2,4.219134E-2,5.0575085E-2,2.7929893E-2,4.924841E-2,4.9530562E-2,5.298735E-2,1.1384249E-2,6.731659E-3,4.1878517E-3,5.881554E-2,-4.1430844E-3,-2.7448443E-5,-5.800381E-3,-9.438432E-3,-1.6099913E-2,-1.211723E-2,-1.6804166E-2,-1.9781508E-2,-2.2774931E-2,-2.6285836E-2,-2.9419038E-2,-3.2351926E-2],"categories":[],"categories_nodes":[],"categories_segments":[],"categories_sizes":[],"default_left":[0,0,0,0,0,0,0,0,0,0,0,0,0,0,0,0,0,0,0,0,0,0,0,0,0,0,0,0,0,0,0,0,0,0,0,0,0,0,0,0,0,0,0,0,0,0,0,0,0,0,0,0,0,0,0,0,0,0,0,0,0,0,0],"id":20,"left_children":[1,3,5,7,9,11,13,15,17,19,21,23,25,27,29,31,33,35,37,39,41,43,45,47,49,51,53,55,57,59,61,-1,-1,-1,-1,-1,-1,-1,-1,-1,-1,-1,-1,-1,-1,-1,-1,-1,-1,-1,-1,-1,-1,-1,-1,-1,-1,-1,-1,-1,-1,-1,-1],"loss_changes":[1.7436767E5,2.5709312E4,2.4671898E4,7.9111016E3,1.4491406E3,3.6768098E3,2.7579531E3,1.1057578E3,1.0149668E3,9.522656E1,3.6392188E2,4.7997974E2,4.8973584E2,2.8966504E2,4.104961E2,1.7280664E2,6.204219E2,2.3089648E2,1.414873E2,2.708994E2,1.127793E2,7.7821655E1,3.3890625E1,1.3865112E2,8.401111E1,9.957164E1,8.025635E1,5.1868652E1,4.5484863E1,7.027344E1,3.340918E1,0E0,0E0,0E0,0E0,0E0,0E0,0E0,0E0,0E0,0E0,0E0,0E0,0E0,0E0,0E0,0E0,0E0,0E0,0E0,0E0,0E0,0E0,0E0,0E0,0E0,0E0,0E0,0E0,0E0,0E0,0E0,0E0],"parents":[2147483647,0,0,1,1,2,2,3,3,4,4,5,5,6,6,7,7,8,8,9,9,10,10,11,11,12,12,13,13,14,14,15,15,16,16,17,17,18,18,19,19,20,20,21,21,22,22,23,23,24,24,25,25,26,26,27,27,28,28,29,29,30,30],"right_children":[2,4,6,8,10,12,14,16,18,20,22,24,26,28,30,32,34,36,38,40,42,44,46,48,50,52,54,56,58,60,62,-1,-1,-1,-1,-1,-1,-1,-1,-1,-1,-1,-1,-1,-1,-1,-1,-1,-1,-1,-1,-1,-1,-1,-1,-1,-1,-1,-1,-1,-1,-1,-1],"split_conditions":[1.832E2,6.1025286E0,6.1655E2,8.44E1,6.5503435E0,3.22E2,1.28E3,1.88E1,1.2216309E2,-5.8002496E0,-7.577912E0,2.3642279E2,4.5265E2,8.365782E2,2.581987E3,-4.1147985E0,5.6E1,1.2185E2,1.6587953E2,-6.505174E-1,6.4277697E0,6.992461E0,-7.0689144E0,2.4935E2,5.906084E0,2.5027E4,5.3064874E2,1.2488E4,1.046E3,1.703E3,4.10355E3,3.6036905E-2,4.791751E-2,3.38179E-2,2.8442943E-2,2.3864197E-2,1.8912591E-2,1.6951002E-2,1.3082606E-2,3.443822E-2,4.9561437E-2,4.219134E-2,5.0575085E-2,2.7929893E-2,4.924841E-2,4.9530562E-2,5.298735E-2,1.1384249E-2,6.731659E-3,4.1878517E-3,5.881554E-2,-4.1430844E-3,-2.7448443E-5,-5.800381E-3,-9.438432E-3,-1.6099913E-2,-1.211723E-2,-1.6804166E-2,-1.9781508E-2,-2.2774931E-2,-2.6285836E-2,-2.9419038E-2,-3.2351926E-2],"split_indices":[3,16,3,1,16,3,1,3,8,15,15,8,1,6,6,15,1,1,8,12,16,16,15,1,16,4,8,4,1,3,3,0,0,0,0,0,0,0,0,0,0,0,0,0,0,0,0,0,0,0,0,0,0,0,0,0,0,0,0,0,0,0,0],"split_type":[0,0,0,0,0,0,0,0,0,0,0,0,0,0,0,0,0,0,0,0,0,0,0,0,0,0,0,0,0,0,0,0,0,0,0,0,0,0,0,0,0,0,0,0,0,0,0,0,0,0,0,0,0,0,0,0,0,0,0,0,0,0,0],"sum_hessian":[1.0986374E6,6.084109E5,4.902265E5,4.4547188E5,1.6293902E5,2.8740747E5,2.0281906E5,2.3562816E5,2.098437E5,4.6423402E4,1.1651562E5,1.4428156E5,1.4312589E5,1.0568981E5,9.712925E4,1.642932E4,2.1919884E5,1.1150527E5,9.833843E4,1.4905128E4,3.1518275E4,2.383134E3,1.14132484E5,7.762545E4,6.66561E4,7.441192E4,6.871398E4,5.3408844E4,5.2280965E4,5.740297E4,3.972628E4,4.0951575E3,1.2334162E4,1.2497329E5,9.422555E4,7.76841E4,3.3821168E4,5.8743656E4,3.9594773E4,1.0816556E4,4.0885725E3,2.676346E4,4.7548154E3,1.8204362E3,5.62698E2,7.863019E3,1.0626946E5,5.5032867E4,2.2592586E4,6.658664E4,6.946079E1,2.0154316E4,5.4257605E4,4.61267E4,2.2587275E4,1.0091672E4,4.331717E4,2.9421688E4,2.285928E4,3.040084E4,2.7002129E4,1.7772895E4,2.1953389E4],"tree_param":{"num_deleted":"0","num_feature":"26","num_nodes":"63","size_leaf_vector":"1"}},{"base_weights":[2.7961716E-1,-1.6903515E-1,6.036869E-1,-1.9925969E-2,-5.7441217E-1,4.1836333E-1,8.0292815E-1,-1.4927396E-1,9.6174434E-2,-3.6458105E-1,-6.541543E-1,3.211749E-1,5.236149E-1,7.1170056E-1,9.0483123E-1,-4.5427302E-1,-1.250431E-1,3.5467006E-2,1.5664071E-1,-2.6720908E-1,-4.155379E-1,-1.3754573E-1,-6.660396E-1,3.2368517E-1,-3.5345748E-2,4.806115E-1,5.736442E-1,6.648797E-1,7.609321E-1,8.58172E-1,9.547422E-1,-1.16250515E-2,-2.618115E-2,-9.074303E-3,-4.2472095E-3,-2.248256E-4,4.4553885E-3,6.3542635E-3,1.1025218E-2,-8.322228E-3,-2.8391484E-2,-1.909734E-2,-2.9053612E-2,-1.005045E-3,-2.7068669E-2,-2.8743682E-2,-3.3639714E-2,1.3385373E-2,1.8272115E-2,2.4070797E-2,-3.5942078E-2,3.0054212E-2,2.7215576E-2,3.1931613E-2,3.455093E-2,3.677009E-2,3.9373554E-2,4.167912E-2,4.385715E-2,4.651932E-2,4.9122795E-2],"categories":[],"categories_nodes":[],"categories_segments":[],"categories_sizes":[],"default_left":[0,0,0,0,0,0,0,0,0,0,0,0,0,0,0,0,0,0,0,0,0,0,0,0,0,0,0,0,0,0,0,0,0,0,0,0,0,0,0,0,0,0,0,0,0,0,0,0,0,0,0,0,0,0,0,0,0,0,0,0,0],"id":21,"left_children":[1,3,5,7,9,11,13,15,17,19,21,23,25,27,29,31,33,35,37,39,41,43,45,47,-1,49,51,53,55,57,59,-1,-1,-1,-1,-1,-1,-1,-1,-1,-1,-1,-1,-1,-1,-1,-1,-1,-1,-1,-1,-1,-1,-1,-1,-1,-1,-1,-1,-1,-1],"loss_changes":[1.5970586E5,2.784527E4,2.3548469E4,5.057693E3,2.0725664E3,3.3798086E3,2.8564844E3,1.1772781E3,6.5149365E2,1.6916504E2,5.510664E2,4.435996E2,3.410078E2,3.733047E2,3.3726562E2,1.8019702E2,3.340088E2,1.8985825E2,1.6780664E2,3.5501874E2,1.2430029E2,9.579176E1,5.3648438E1,4.0048828E2,0E0,8.2666016E1,5.86875E1,5.659375E1,5.2976562E1,3.4273438E1,4.642578E1,0E0,0E0,0E0,0E0,0E0,0E0,0E0,0E0,0E0,0E0,0E0,0E0,0E0,0E0,0E0,0E0,0E0,0E0,0E0,0E0,0E0,0E0,0E0,0E0,0E0,0E0,0E0,0E0,0E0,0E0],"parents":[2147483647,0,0,1,1,2,2,3,3,4,4,5,5,6,6,7,7,8,8,9,9,10,10,11,11,12,12,13,13,14,14,15,15,16,16,17,17,18,18,19,19,20,20,21,21,22,22,23,23,25,25,26,26,27,27,28,28,29,29,30,30],"right_children":[2,4,6,8,10,12,14,16,18,20,22,24,26,28,30,32,34,36,38,40,42,44,46,48,-1,50,52,54,56,58,60,-1,-1,-1,-1,-1,-1,-1,-1,-1,-1,-1,-1,-1,-1,-1,-1,-1,-1,-1,-1,-1,-1,-1,-1,-1,-1,-1,-1,-1,-1],"split_conditions":[1.388E2,6.130453E0,4.89E2,6.735E1,6.5503435E0,2.67E2,1.08E3,1.73E1,9.83E1,-5.8002496E0,-7.577912E0,6.15585E0,3.66E2,6.76E2,1.9656603E3,-3.9133337E0,3.99E1,8.369804E1,1.2471713E2,-6.505174E-1,6.4277697E0,6.992461E0,-7.0689144E0,1.84E2,-3.5345748E-2,5.8297014E0,2.108321E1,5.596E2,7.779921E2,1.325E3,3.7208E3,-1.16250515E-2,-2.618115E-2,-9.074303E-3,-4.2472095E-3,-2.248256E-4,4.4553885E-3,6.3542635E-3,1.1025218E-2,-8.322228E-3,-2.8391484E-2,-1.909734E-2,-2.9053612E-2,-1.005045E-3,-2.7068669E-2,-2.8743682E-2,-3.3639714E-2,1.3385373E-2,1.8272115E-2,2.4070797E-2,-3.5942078E-2,3.0054212E-2,2.7215576E-2,3.1931613E-2,3.455093E-2,3.677009E-2,3.9373554E-2,4.167912E-2,4.385715E-2,4.651932E-2,4.9122795E-2],"split_indices":[1,16,1,1,16,1,1,0,1,15,15,16,1,2,5,15,1,8,8,12,16,16,15,1,0,16,11,2,8,2,1,0,0,0,0,0,0,0,0,0,0,0,0,0,0,0,0,0,0,0,0,0,0,0,0,0,0,0,0,0,0],"split_type":[0,0,0,0,0,0,0,0,0,0,0,0,0,0,0,0,0,0,0,0,0,0,0,0,0,0,0,0,0,0,0,0,0,0,0,0,0,0,0,0,0,0,0,0,0,0,0,0,0,0,0,0,0,0,0,0,0,0,0,0,0],"sum_hessian":[1.0984284E6,4.6066703E5,6.377613E5,3.367879E5,1.2387911E5,3.3042272E5,3.073386E5,1.593051E5,1.7748283E5,3.4115117E4,8.976399E4,1.7179377E5,1.5862895E5,1.6216775E5,1.4517086E5,1.1723333E4,1.4758177E5,8.856559E4,8.891723E4,1.1722047E4,2.2393072E4,2.018982E3,8.774501E4,1.71376E5,4.177643E2,8.531007E4,7.3318875E4,8.312623E4,7.9041516E4,7.503895E4,7.01319E4,2.7937249E3,8.929608E3,6.129698E4,8.628478E4,5.0753824E4,3.7811773E4,6.0788105E4,2.8129123E4,8.780483E3,2.9415632E3,1.861826E4,3.7748125E3,1.5649103E3,4.540717E2,6.058702E3,8.1686305E4,7.322344E4,9.815256E4,8.525349E4,5.658095E1,3.7871535E4,3.544734E4,4.148977E4,4.1636457E4,4.0301004E4,3.8740516E4,3.26996E4,4.2339355E4,3.734573E4,3.2786168E4],"tree_param":{"num_deleted":"0","num_feature":"26","num_nodes":"61","size_leaf_vector":"1"}},{"base_weights":[-6.714842E-1,-6.721461E-1,-3.3262093E-2,-3.3642445E-2,-3.3481948E-2],"categories":[],"categories_nodes":[],"categories_segments":[],"categories_sizes":[],"default_left":[0,0,0,0,0],"id":22,"left_children":[1,3,-1,-1,-1],"loss_changes":[3.3125E0,1E0,0E0,0E0,0E0],"parents":[2147483647,0,0,1,1],"right_children":[2,4,-1,-1,-1],"split_conditions":[6.5503435E0,6.56E2,-3.3262093E-2,-3.3642445E-2,-3.3481948E-2],"split_indices":[16,1,0,0,0],"split_type":[0,0,0,0,0],"sum_hessian":[9.134977E5,8.25824E5,8.767368E4,6.44807E5,1.8101702E5],"tree_param":{"num_deleted":"0","num_feature":"26","num_nodes":"5","size_leaf_vector":"1"}},{"base_weights":[2.790978E-1,6.157209E-1,-1.4996667E-1,4.9752274E-1,9.4253576E-1,3.2776196E-2,-4.1005364E-1,6.1965114E-1,3.628937E-1,7.969337E-1,1.0007344E0,1.3464262E-1,-8.057301E-2,-3.0401093E-1,-5.3612465E-1,8.572892E-1,6.019208E-1,4.1951165E-1,2.859366E-1,7.5786203E-1,8.5506135E-1,6.433966E-1,1.0081276E0,1.8786958E-1,7.698305E-2,-2.861189E-2,-1.3795082E-1,-2.5385055E-1,-3.633371E-1,-4.7597128E-1,-6.038894E-1,3.3894498E-2,4.581177E-2,3.23122E-2,2.7151728E-2,2.2592178E-2,1.7919837E-2,1.5923513E-2,1.1218694E-2,3.5543412E-2,4.068802E-2,3.3750366E-2,4.3493066E-2,2.7800972E-2,4.6126522E-2,4.617342E-2,5.0579775E-2,9.306769E-3,5.4183036E-2,5.551687E-3,2.3152556E-3,1.06917774E-4,-3.1205032E-3,-5.7543525E-3,-9.041251E-3,-1.1953129E-2,-1.5583962E-2,-1.6485354E-2,-1.9219952E-2,-2.2308022E-2,-2.5541037E-2,-2.8684033E-2,-3.181641E-2],"categories":[],"categories_nodes":[],"categories_segments":[],"categories_sizes":[],"default_left":[0,0,0,0,0,0,0,0,0,0,0,0,0,0,0,0,0,0,0,0,0,0,0,0,0,0,0,0,0,0,0,0,0,0,0,0,0,0,0,0,0,0,0,0,0,0,0,0,0,0,0,0,0,0,0,0,0,0,0,0,0,0,0],"id":23,"left_children":[1,3,5,7,9,11,13,15,17,19,21,23,25,27,29,31,33,35,37,39,41,43,45,47,49,51,53,55,57,59,61,-1,-1,-1,-1,-1,-1,-1,-1,-1,-1,-1,-1,-1,-1,-1,-1,-1,-1,-1,-1,-1,-1,-1,-1,-1,-1,-1,-1,-1,-1,-1,-1],"loss_changes":[1.5870506E5,2.3784781E4,2.2960232E4,7.4347734E3,1.3850312E3,3.276055E3,2.664961E3,9.985E2,9.3706836E2,1.0542969E2,3.0801562E2,4.5860156E2,4.0038495E2,3.2212695E2,3.7095312E2,1.7344043E2,5.7553906E2,2.4470117E2,1.8253613E2,7.282031E1,4.942285E1,5.7316956E1,3.2671875E1,1.2050708E2,7.492578E1,7.324516E1,6.2540283E1,5.0102783E1,3.500879E1,4.990039E1,4.1598633E1,0E0,0E0,0E0,0E0,0E0,0E0,0E0,0E0,0E0,0E0,0E0,0E0,0E0,0E0,0E0,0E0,0E0,0E0,0E0,0E0,0E0,0E0,0E0,0E0,0E0,0E0,0E0,0E0,0E0,0E0,0E0,0E0],"parents":[2147483647,0,0,1,1,2,2,3,3,4,4,5,5,6,6,7,7,8,8,9,9,10,10,11,11,12,12,13,13,14,14,15,15,16,16,17,17,18,18,19,19,20,20,21,21,22,22,23,23,24,24,25,25,26,26,27,27,28,28,29,29,30,30],"right_children":[2,4,6,8,10,12,14,16,18,20,22,24,26,28,30,32,34,36,38,40,42,44,46,48,50,52,54,56,58,60,62,-1,-1,-1,-1,-1,-1,-1,-1,-1,-1,-1,-1,-1,-1,-1,-1,-1,-1,-1,-1,-1,-1,-1,-1,-1,-1,-1,-1,-1,-1,-1,-1],"split_conditions":[1.858E2,6.1025286E0,6.1655E2,8.24E1,6.5503435E0,3.335E2,1.30005E3,1.89E1,1.3095E2,7.6859427E-4,-7.577912E0,2.521E2,4.5175812E2,8.66E2,2.410621E3,-4.1147985E0,5.455E1,1.13012375E2,1.6587953E2,1.835E1,-7.4489527E0,6.992461E0,6.6499166E0,6.040127E0,2.7013834E2,3.6305185E2,5.3064874E2,7.9768604E2,1E3,1.703E3,4.09689E3,3.3894498E-2,4.581177E-2,3.23122E-2,2.7151728E-2,2.2592178E-2,1.7919837E-2,1.5923513E-2,1.1218694E-2,3.5543412E-2,4.068802E-2,3.3750366E-2,4.3493066E-2,2.7800972E-2,4.6126522E-2,4.617342E-2,5.0579775E-2,9.306769E-3,5.4183036E-2,5.551687E-3,2.3152556E-3,1.06917774E-4,-3.1205032E-3,-5.7543525E-3,-9.041251E-3,-1.1953129E-2,-1.5583962E-2,-1.6485354E-2,-1.9219952E-2,-2.2308022E-2,-2.5541037E-2,-2.8684033E-2,-3.181641E-2],"split_indices":[3,16,3,3,16,3,3,0,3,14,15,3,5,2,5,15,3,8,8,2,15,16,16,16,8,8,8,8,5,3,7,0,0,0,0,0,0,0,0,0,0,0,0,0,0,0,0,0,0,0,0,0,0,0,0,0,0,0,0,0,0,0,0],"split_type":[0,0,0,0,0,0,0,0,0,0,0,0,0,0,0,0,0,0,0,0,0,0,0,0,0,0,0,0,0,0,0,0,0,0,0,0,0,0,0,0,0,0,0,0,0,0,0,0,0,0,0,0,0,0,0,0,0,0,0,0,0,0,0],"sum_hessian":[1.0988126E6,6.157358E5,4.8307678E5,4.5219447E5,1.6354133E5,2.8372572E5,1.993511E5,2.3710328E5,2.150912E5,4.670615E4,1.1683518E5,1.4943181E5,1.3429389E5,1.0827806E5,9.107302E4,1.645891E4,2.2064438E5,1.2391875E5,9.117245E4,2.793985E4,1.8766299E4,2.370052E3,1.14465125E5,7.7701445E4,7.1730375E4,7.047422E4,6.381967E4,5.867418E4,4.9603883E4,4.8250285E4,4.2822742E4,4.0736077E3,1.2385303E4,1.2588312E5,9.476126E4,8.1039586E4,4.2879164E4,5.9647016E4,3.1525438E4,1.5186361E4,1.2753487E4,1.4289158E3,1.7337385E4,1.8073042E3,5.627478E2,4.5147744E3,1.0995035E5,7.7552516E4,1.4892876E2,3.3995152E4,3.7735223E4,3.690147E4,3.357275E4,4.1625496E4,2.2194178E4,4.6729625E4,1.1944555E4,1.9108934E4,3.049495E4,2.6012512E4,2.2237771E4,2.2183248E4,2.0639494E4],"tree_param":{"num_deleted":"0","num_feature":"26","num_nodes":"63","size_leaf_vector":"1"}},{"base_weights":[2.6914796E-1,-1.6172361E-1,5.762585E-1,-1.7419718E-2,-5.623838E-1,3.9123458E-1,7.589531E-1,-1.4211111E-1,9.340576E-2,-3.49211E-1,-6.441248E-1,3.0064425E-1,4.8123622E-1,6.6511214E-1,8.5884386E-1,-4.4095075E-1,-1.18859015E-1,3.627557E-2,1.5027149E-1,-2.5204948E-1,-4.005009E-1,-1.3035896E-1,-6.56126E-1,3.0308402E-1,-3.4718093E-2,4.3292427E-1,5.219881E-1,6.1165947E-1,7.081492E-1,8.071429E-1,9.083578E-1,-1.1210619E-2,-2.5700038E-2,-8.7112365E-3,-3.9864345E-3,-2.7498489E-3,2.8658719E-3,9.4562E-3,5.766757E-3,-8.400808E-3,-2.9400682E-2,-1.8338783E-2,-2.8475454E-2,-7.498449E-4,-2.6610786E-2,-2.8147776E-2,-3.3152636E-2,1.3214864E-2,1.7272366E-2,2.1689879E-2,-3.59608E-2,2.7241444E-2,2.474033E-2,2.9358868E-2,3.1525206E-2,3.4010034E-2,3.657728E-2,3.915009E-2,4.1333187E-2,4.3915298E-2,4.6752945E-2],"categories":[],"categories_nodes":[],"categories_segments":[],"categories_sizes":[],"default_left":[0,0,0,0,0,0,0,0,0,0,0,0,0,0,0,0,0,0,0,0,0,0,0,0,0,0,0,0,0,0,0,0,0,0,0,0,0,0,0,0,0,0,0,0,0,0,0,0,0,0,0,0,0,0,0,0,0,0,0,0,0],"id":24,"left_children":[1,3,5,7,9,11,13,15,17,19,21,23,25,27,29,31,33,35,37,39,41,43,45,47,-1,49,51,53,55,57,59,-1,-1,-1,-1,-1,-1,-1,-1,-1,-1,-1,-1,-1,-1,-1,-1,-1,-1,-1,-1,-1,-1,-1,-1,-1,-1,-1,-1,-1,-1],"loss_changes":[1.4530466E5,2.6420459E4,2.167136E4,4.642728E3,2.10825E3,2.5969297E3,3.0233281E3,1.0984846E3,5.778618E2,1.6704517E2,5.391953E2,3.855879E2,3.1435547E2,3.8221875E2,3.992578E2,1.8057715E2,3.1777002E2,1.7041663E2,1.2097754E2,3.2713837E2,1.2490576E2,9.260331E1,5.4789062E1,2.601172E2,0E0,7.387891E1,5.353711E1,3.386133E1,5.975E1,3.5378906E1,6.3210938E1,0E0,0E0,0E0,0E0,0E0,0E0,0E0,0E0,0E0,0E0,0E0,0E0,0E0,0E0,0E0,0E0,0E0,0E0,0E0,0E0,0E0,0E0,0E0,0E0,0E0,0E0,0E0,0E0,0E0,0E0],"parents":[2147483647,0,0,1,1,2,2,3,3,4,4,5,5,6,6,7,7,8,8,9,9,10,10,11,11,12,12,13,13,14,14,15,15,16,16,17,17,18,18,19,19,20,20,21,21,22,22,23,23,25,25,26,26,27,27,28,28,29,29,30,30],"right_children":[2,4,6,8,10,12,14,16,18,20,22,24,26,28,30,32,34,36,38,40,42,44,46,48,-1,50,52,54,56,58,60,-1,-1,-1,-1,-1,-1,-1,-1,-1,-1,-1,-1,-1,-1,-1,-1,-1,-1,-1,-1,-1,-1,-1,-1,-1,-1,-1,-1,-1,-1],"split_conditions":[1.388E2,6.130453E0,4.4355E2,6.735E1,6.5503435E0,2.4795E2,1E3,1.775E1,9.83E1,-5.8002496E0,-7.577912E0,6.15585E0,3.2230777E2,6.1655E2,1.7845E3,-3.5119257E0,3.99E1,-5.4093146E0,-1.056602E-2,2.015E1,6.4277697E0,6.992461E0,-7.0689144E0,1.858E2,-3.4718093E-2,5.906084E0,-1.6132328E-3,5.27E2,7.54E2,1.258E3,2.9601E3,-1.1210619E-2,-2.5700038E-2,-8.7112365E-3,-3.9864345E-3,-2.7498489E-3,2.8658719E-3,9.4562E-3,5.766757E-3,-8.400808E-3,-2.9400682E-2,-1.8338783E-2,-2.8475454E-2,-7.498449E-4,-2.6610786E-2,-2.8147776E-2,-3.3152636E-2,1.3214864E-2,1.7272366E-2,2.1689879E-2,-3.59608E-2,2.7241444E-2,2.474033E-2,2.9358868E-2,3.1525206E-2,3.4010034E-2,3.657728E-2,3.915009E-2,4.1333187E-2,4.3915298E-2,4.6752945E-2],"split_indices":[1,16,2,1,16,3,3,1,1,15,15,16,5,3,3,15,1,15,14,1,16,16,15,3,0,16,14,1,3,0,2,0,0,0,0,0,0,0,0,0,0,0,0,0,0,0,0,0,0,0,0,0,0,0,0,0,0,0,0,0,0],"split_type":[0,0,0,0,0,0,0,0,0,0,0,0,0,0,0,0,0,0,0,0,0,0,0,0,0,0,0,0,0,0,0,0,0,0,0,0,0,0,0,0,0,0,0,0,0,0,0,0,0,0,0,0,0,0,0,0,0,0,0,0,0],"sum_hessian":[1.0980859E6,4.5696753E5,6.411183E5,3.3596547E5,1.2100206E5,3.1853016E5,3.225882E5,1.5809272E5,1.7787273E5,3.3539504E4,8.7462555E4,1.5874806E5,1.597821E5,1.6633494E5,1.5625323E5,1.1411558E4,1.4668117E5,8.873086E4,8.9141875E4,1.1589926E4,2.194958E4,1.9966973E3,8.546586E4,1.5836045E5,3.87606E2,7.3114914E4,8.666718E4,7.4196695E4,9.213824E4,7.644694E4,7.9806305E4,2.8776572E3,8.5339E3,6.07385E4,8.5942664E4,1.6623234E4,7.2107625E4,4.220337E4,4.6938508E4,9.272207E3,2.3177188E3,1.8300854E4,3.648725E3,1.5521537E3,4.4454352E2,5.919959E3,7.95459E4,8.267378E4,7.568668E4,7.306016E4,5.475406E1,4.708349E4,3.9583695E4,3.2285227E4,4.191147E4,4.1998535E4,5.013971E4,3.4197082E4,4.2249855E4,3.7563156E4,4.2243145E4],"tree_param":{"num_deleted":"0","num_feature":"26","num_nodes":"61","size_leaf_vector":"1"}},{"base_weights":[-6.6306114E-1,-3.2994326E-2,-6.635406E-1,-3.3215832E-2,-3.3042047E-2],"categories":[],"categories_nodes":[],"categories_segments":[],"categories_sizes":[],"default_left":[0,0,0,0,0],"id":25,"left_children":[1,-1,3,-1,-1],"loss_changes":[9.6875E-1,0E0,1.1875E0,0E0,0E0],"parents":[2147483647,0,0,2,2],"right_children":[2,-1,4,-1,-1],"split_conditions":[2.605E1,-3.2994326E-2,6.59E2,-3.3215832E-2,-3.3042047E-2],"split_indices":[0,0,0,0,0],"split_type":[0,0,0,0,0],"sum_hessian":[8.9106244E5,1.17103195E5,7.7395925E5,6.009656E5,1.7299362E5],"tree_param":{"num_deleted":"0","num_feature":"26","num_nodes":"5","size_leaf_vector":"1"}},{"base_weights":[2.6897994E-1,5.80938E-1,-1.5447304E-1,7.736626E-1,4.0306196E-1,2.3217319E-2,-3.990039E-1,8.58325E-1,6.7404026E-1,4.9913266E-1,3.0661136E-1,1.1791545E-1,-7.9329535E-2,-2.906934E-1,-5.1920086E-1,9.133087E-1,8.1213105E-1,6.1604744E-1,7.0381624E-1,5.4088634E-1,4.361539E-1,3.3883655E-1,2.2026859E-1,1.6604179E-1,6.518852E-2,-2.830742E-2,-1.318448E-1,-2.3936665E-1,-3.4071213E-1,-4.5851707E-1,-5.9347177E-1,4.316875E-2,4.6917196E-2,3.8592186E-2,4.2341825E-2,3.3507545E-2,2.9559562E-2,3.7264835E-2,3.311498E-2,2.407246E-2,2.8067151E-2,2.3106642E-2,2.0331347E-2,1.8580133E-2,1.4458375E-2,1.0131208E-2,1.3132624E-2,3.8786381E-3,9.09611E-3,1.8780064E-3,5.2437116E-3,-3.5848878E-3,-1.7175102E-4,-9.863976E-3,-5.73642E-3,-1.5031314E-2,-1.1112336E-2,-1.556008E-2,-1.8483477E-2,-2.151179E-2,-2.4827037E-2,-2.7715717E-2,-3.109029E-2],"categories":[],"categories_nodes":[],"categories_segments":[],"categories_sizes":[],"default_left":[0,0,0,0,0,0,0,0,0,0,0,0,0,0,0,0,0,0,0,0,0,0,0,0,0,0,0,0,0,0,0,0,0,0,0,0,0,0,0,0,0,0,0,0,0,0,0,0,0,0,0,0,0,0,0,0,0,0,0,0,0,0,0],"id":26,"left_children":[1,3,5,7,9,11,13,15,17,19,21,23,25,27,29,31,33,35,37,39,41,43,45,47,49,51,53,55,57,59,61,-1,-1,-1,-1,-1,-1,-1,-1,-1,-1,-1,-1,-1,-1,-1,-1,-1,-1,-1,-1,-1,-1,-1,-1,-1,-1,-1,-1,-1,-1,-1,-1],"loss_changes":[1.4506388E5,2.167611E4,2.0240541E4,2.5591406E3,3.0467773E3,2.6199011E3,2.5520352E3,4.1595312E2,2.4033594E2,4.3295312E2,4.564961E2,3.5590894E2,3.4705353E2,2.646621E2,4.1852734E2,9.28125E1,1.2401172E2,6.3228516E1,1.5814844E2,1.2016992E2,5.0194336E1,1.9436035E2,3.330078E1,1.0300769E2,7.338498E1,7.090274E1,7.1466064E1,5.3313965E1,4.4513184E1,5.4783203E1,4.600879E1,0E0,0E0,0E0,0E0,0E0,0E0,0E0,0E0,0E0,0E0,0E0,0E0,0E0,0E0,0E0,0E0,0E0,0E0,0E0,0E0,0E0,0E0,0E0,0E0,0E0,0E0,0E0,0E0,0E0,0E0,0E0,0E0],"parents":[2147483647,0,0,1,1,2,2,3,3,4,4,5,5,6,6,7,7,8,8,9,9,10,10,11,11,12,12,13,13,14,14,15,15,16,16,17,17,18,18,19,19,20,20,21,21,22,22,23,23,24,24,25,25,26,26,27,27,28,28,29,29,30,30],"right_children":[2,4,6,8,10,12,14,16,18,20,22,24,26,28,30,32,34,36,38,40,42,44,46,48,50,52,54,56,58,60,62,-1,-1,-1,-1,-1,-1,-1,-1,-1,-1,-1,-1,-1,-1,-1,-1,-1,-1,-1,-1,-1,-1,-1,-1,-1,-1,-1,-1,-1,-1,-1,-1],"split_conditions":[1.955E2,5.73E1,6.1655E2,2.675E1,1.088E2,3.393E2,1.256E3,1.25E1,-1.1974161E-2,8.501137E1,1.6826834E2,2.67E2,4.617E2,8.361173E2,2.410621E3,-1.2870369E-3,-2.8101949E-3,3.7E1,3.941412E1,-1.7993081E-2,1.04604095E2,1.421624E2,2.89289E5,-2.2743074E1,1.9247852E1,4.661E4,1.6903E4,1.5334E4,1E3,1.703E3,3.7208E3,4.316875E-2,4.6917196E-2,3.8592186E-2,4.2341825E-2,3.3507545E-2,2.9559562E-2,3.7264835E-2,3.311498E-2,2.407246E-2,2.8067151E-2,2.3106642E-2,2.0331347E-2,1.8580133E-2,1.4458375E-2,1.0131208E-2,1.3132624E-2,3.8786381E-3,9.09611E-3,1.8780064E-3,5.2437116E-3,-3.5848878E-3,-1.7175102E-4,-9.863976E-3,-5.73642E-3,-1.5031314E-2,-1.1112336E-2,-1.556008E-2,-1.8483477E-2,-2.151179E-2,-2.4827037E-2,-2.7715717E-2,-3.109029E-2],"split_indices":[3,1,3,3,1,3,3,1,14,8,8,1,1,5,5,14,14,1,7,14,8,5,4,11,11,4,4,4,5,3,1,0,0,0,0,0,0,0,0,0,0,0,0,0,0,0,0,0,0,0,0,0,0,0,0,0,0,0,0,0,0,0,0],"split_type":[0,0,0,0,0,0,0,0,0,0,0,0,0,0,0,0,0,0,0,0,0,0,0,0,0,0,0,0,0,0,0,0,0,0,0,0,0,0,0,0,0,0,0,0,0,0,0,0,0,0,0,0,0,0,0,0,0,0,0,0,0,0,0],"sum_hessian":[1.0981388E6,6.3231306E5,4.6582575E5,3.034877E5,3.2882538E5,2.697851E5,1.9604066E5,1.6405814E5,1.3942953E5,1.6473503E5,1.6409034E5,1.4026008E5,1.2952502E5,1.0312094E5,9.291972E4,7.48943E4,8.916384E4,4.730953E4,9.212E4,9.905556E4,6.567947E4,1.1949065E5,4.4599695E4,7.3328016E4,6.693207E4,6.569726E4,6.382777E4,5.0897844E4,5.2223094E4,5.1141348E4,4.177837E4,2.5022166E4,4.9872133E4,4.1274297E4,4.788955E4,1.4884694E4,3.2424838E4,4.6071562E4,4.6048438E4,2.5369285E4,7.368627E4,3.4931094E4,3.0748373E4,7.199192E4,4.7498723E4,3.1494361E4,1.3105333E4,1.116031E4,6.2167703E4,3.9461625E4,2.7470447E4,2.3936947E4,4.1760305E4,1.3232063E4,5.0595703E4,1.1113659E4,3.9784184E4,2.587035E4,2.6352744E4,2.9334896E4,2.180645E4,1.754788E4,2.4230492E4],"tree_param":{"num_deleted":"0","num_feature":"26","num_nodes":"63","size_leaf_vector":"1"}},{"base_weights":[2.597529E-1,-1.5847862E-1,5.4972297E-1,-2.0355565E-2,-5.6192064E-1,3.7090832E-1,7.245678E-1,-1.4066519E-1,8.571328E-2,-3.4843504E-1,-6.353351E-1,2.8371823E-1,4.574568E-1,6.396322E-1,8.308969E-1,-4.2621782E-1,-1.16423376E-1,2.9971635E-2,1.4599136E-1,-3.1048247E-1,-5.237439E-1,-1.1332038E-1,-6.4770097E-1,2.8619233E-1,-3.4381222E-2,4.1325146E-1,4.9865964E-1,5.86628E-1,6.8485785E-1,7.911853E-1,8.8613784E-1,-9.551242E-3,-2.4640104E-2,-3.9327806E-3,-8.633867E-3,3.330804E-4,4.984454E-3,8.736083E-3,5.031481E-3,-1.1970752E-2,-2.047895E-2,-2.3044806E-2,-3.1850148E-2,-1.389385E-4,-2.5582463E-2,-2.7668519E-2,-3.2738592E-2,1.2005728E-2,1.6278028E-2,2.0711422E-2,-3.5612613E-2,2.3554316E-2,2.629289E-2,2.8143693E-2,3.0523134E-2,3.3090133E-2,3.5778686E-2,3.848424E-2,4.090614E-2,4.3285627E-2,4.5499273E-2],"categories":[],"categories_nodes":[],"categories_segments":[],"categories_sizes":[],"default_left":[0,0,0,0,0,0,0,0,0,0,0,0,0,0,0,0,0,0,0,0,0,0,0,0,0,0,0,0,0,0,0,0,0,0,0,0,0,0,0,0,0,0,0,0,0,0,0,0,0,0,0,0,0,0,0,0,0,0,0,0,0],"id":27,"left_children":[1,3,5,7,9,11,13,15,17,19,21,23,25,27,29,31,33,35,37,39,41,43,45,47,-1,49,51,53,55,57,59,-1,-1,-1,-1,-1,-1,-1,-1,-1,-1,-1,-1,-1,-1,-1,-1,-1,-1,-1,-1,-1,-1,-1,-1,-1,-1,-1,-1,-1,-1],"loss_changes":[1.330325E5,2.5028322E4,2.025339E4,4.2697837E3,1.7951328E3,2.4166875E3,2.9575312E3,1.0851802E3,5.9747424E2,1.9487988E2,5.5014844E2,3.836211E2,2.9253516E2,4.3609375E2,3.18375E2,1.9201343E2,3.0700256E2,1.501409E2,1.1132483E2,1.6962793E2,3.6830444E1,8.690248E1,5.517578E1,2.8860547E2,0E0,8.556152E1,6.213672E1,4.7126953E1,6.910547E1,4.8382812E1,2.8835938E1,0E0,0E0,0E0,0E0,0E0,0E0,0E0,0E0,0E0,0E0,0E0,0E0,0E0,0E0,0E0,0E0,0E0,0E0,0E0,0E0,0E0,0E0,0E0,0E0,0E0,0E0,0E0,0E0,0E0,0E0],"parents":[2147483647,0,0,1,1,2,2,3,3,4,4,5,5,6,6,7,7,8,8,9,9,10,10,11,11,12,12,13,13,14,14,15,15,16,16,17,17,18,18,19,19,20,20,21,21,22,22,23,23,25,25,26,26,27,27,28,28,29,29,30,30],"right_children":[2,4,6,8,10,12,14,16,18,20,22,24,26,28,30,32,34,36,38,40,42,44,46,48,-1,50,52,54,56,58,60,-1,-1,-1,-1,-1,-1,-1,-1,-1,-1,-1,-1,-1,-1,-1,-1,-1,-1,-1,-1,-1,-1,-1,-1,-1,-1,-1,-1,-1,-1],"split_conditions":[1.364E2,6.15585E0,4.5265E2,6.595E1,6.5503435E0,2.437E2,1.08E3,1.73E1,9.531409E1,5.8564153E-2,-7.577912E0,6.15585E0,3.22E2,6.42E2,2.24485E3,-4.1147985E0,-4.3975195E-4,9.83E1,2.8058922E0,-6.513308E-1,6.2273064E0,6.992461E0,-7.0689144E0,1.6826834E2,-3.4381222E-2,5.906084E0,3.5109213E2,5.26E2,8.3555E2,1.53E3,4.05E3,-9.551242E-3,-2.4640104E-2,-3.9327806E-3,-8.633867E-3,3.330804E-4,4.984454E-3,8.736083E-3,5.031481E-3,-1.1970752E-2,-2.047895E-2,-2.3044806E-2,-3.1850148E-2,-1.389385E-4,-2.5582463E-2,-2.7668519E-2,-3.2738592E-2,1.2005728E-2,1.6278028E-2,2.0711422E-2,-3.5612613E-2,2.3554316E-2,2.629289E-2,2.8143693E-2,3.0523134E-2,3.3090133E-2,3.5778686E-2,3.848424E-2,4.090614E-2,4.3285627E-2,4.5499273E-2],"split_indices":[1,16,1,1,16,3,1,0,8,15,15,16,3,1,3,15,14,1,16,12,16,16,15,8,0,16,8,3,3,1,2,0,0,0,0,0,0,0,0,0,0,0,0,0,0,0,0,0,0,0,0,0,0,0,0,0,0,0,0,0,0],"split_type":[0,0,0,0,0,0,0,0,0,0,0,0,0,0,0,0,0,0,0,0,0,0,0,0,0,0,0,0,0,0,0,0,0,0,0,0,0,0,0,0,0,0,0,0,0,0,0,0,0,0,0,0,0,0,0,0,0,0,0,0,0],"sum_hessian":[1.096951E6,4.49142E5,6.47809E5,3.345917E5,1.145503E5,3.2027025E5,3.2753875E5,1.5677162E5,1.7782008E5,2.9313582E4,8.523671E4,1.5954589E5,1.6072436E5,1.8209138E5,1.4544736E5,1.2266285E4,1.4450533E5,9.238724E4,8.5432836E4,2.4099135E4,5.214448E3,1.9726575E3,8.3264055E4,1.5914125E5,4.046425E2,7.754242E4,8.3181945E4,8.384237E4,9.8249016E4,8.4626445E4,6.0820906E4,2.7072925E3,9.558992E3,8.646014E4,5.8045195E4,6.923845E4,2.3148783E4,5.2303215E4,3.312962E4,1.4036341E4,1.0062793E4,3.3568115E3,1.8576366E3,1.5449265E3,4.2773093E2,5.811654E3,7.74524E4,7.332571E4,8.581554E4,7.74758E4,6.66188E1,4.131515E4,4.1866793E4,4.200443E4,4.1837934E4,5.61361E4,4.2112914E4,4.707919E4,3.7547258E4,3.2781242E4,2.8039668E4],"tree_param":{"num_deleted":"0","num_feature":"26","num_nodes":"61","size_leaf_vector":"1"}},{"base_weights":[-6.5518814E-1,-6.5589726E-1,-3.243713E-2,-3.2836463E-2,-3.261632E-2],"categories":[],"categories_nodes":[],"categories_segments":[],"categories_sizes":[],"default_left":[0,0,0,0,0],"id":28,"left_children":[1,3,-1,-1,-1],"loss_changes":[3.5625E0,1.875E0,0E0,0E0,0E0],"parents":[2147483647,0,0,1,1],"right_children":[2,4,-1,-1,-1],"split_conditions":[6.4843736E0,7.55E2,-3.243713E-2,-3.2836463E-2,-3.261632E-2],"split_indices":[16,0,0,0,0],"split_type":[0,0,0,0,0],"sum_hessian":[8.686821E5,7.8249544E5,8.618669E4,6.344702E5,1.4802527E5],"tree_param":{"num_deleted":"0","num_feature":"26","num_nodes":"5","size_leaf_vector":"1"}},{"base_weights":[2.5931886E-1,5.510069E-1,-1.5426181E-1,4.444426E-1,8.7575406E-1,1.5393425E-2,-3.9210594E-1,5.7030547E-1,3.2523036E-1,7.380977E-1,9.2541844E-1,1.0209465E-1,-8.7901436E-2,-2.8796363E-1,-5.1354474E-1,7.900898E-1,5.543128E-1,3.881531E-1,2.514427E-1,7.0917964E-1,8.249661E-1,8.574333E-1,9.383301E-1,1.500154E-1,4.673534E-2,-4.492846E-2,-1.386296E-1,-2.4204369E-1,-3.4295824E-1,-4.5613006E-1,-5.8988386E-1,4.363862E-2,3.635658E-2,2.9688165E-2,2.5177194E-2,2.0901017E-2,1.6417803E-2,1.4197786E-2,9.844644E-3,3.316974E-2,3.880732E-2,3.7471794E-2,4.5670457E-2,3.644127E-2,4.6454575E-2,4.668705E-2,4.783259E-2,8.439317E-3,4.102574E-3,1.2664542E-3,5.0494587E-3,-3.9734403E-3,-7.5032347E-4,-1.0318636E-2,-5.8970046E-3,-1.4874051E-2,-1.119824E-2,-1.5857814E-2,-1.860313E-2,-2.1119978E-2,-2.4522686E-2,-2.7946297E-2,-3.0907003E-2],"categories":[],"categories_nodes":[],"categories_segments":[],"categories_sizes":[],"default_left":[0,0,0,0,0,0,0,0,0,0,0,0,0,0,0,0,0,0,0,0,0,0,0,0,0,0,0,0,0,0,0,0,0,0,0,0,0,0,0,0,0,0,0,0,0,0,0,0,0,0,0,0,0,0,0,0,0,0,0,0,0,0,0],"id":29,"left_children":[1,3,5,7,9,11,13,15,17,19,21,23,25,27,29,31,33,35,37,39,41,43,45,47,49,51,53,55,57,59,61,-1,-1,-1,-1,-1,-1,-1,-1,-1,-1,-1,-1,-1,-1,-1,-1,-1,-1,-1,-1,-1,-1,-1,-1,-1,-1,-1,-1,-1,-1,-1,-1],"loss_changes":[1.3225236E5,2.2247422E4,1.8295695E4,7.262625E3,1.0852109E3,2.3700732E3,2.3871914E3,8.2715625E2,1.1540996E3,1.0521484E2,1.0166406E2,3.816787E2,2.6325293E2,2.5655273E2,3.8168945E2,8.248926E1,4.393047E2,2.3949414E2,2.028789E2,9.638965E1,6.954248E1,1.7111328E2,7.34375E0,9.837085E1,7.7529144E1,6.757129E1,7.7600586E1,5.544214E1,3.460547E1,5.7381836E1,3.2374023E1,0E0,0E0,0E0,0E0,0E0,0E0,0E0,0E0,0E0,0E0,0E0,0E0,0E0,0E0,0E0,0E0,0E0,0E0,0E0,0E0,0E0,0E0,0E0,0E0,0E0,0E0,0E0,0E0,0E0,0E0,0E0,0E0],"parents":[2147483647,0,0,1,1,2,2,3,3,4,4,5,5,6,6,7,7,8,8,9,9,10,10,11,11,12,12,13,13,14,14,15,15,16,16,17,17,18,18,19,19,20,20,21,21,22,22,23,23,24,24,25,25,26,26,27,27,28,28,29,29,30,30],"right_children":[2,4,6,8,10,12,14,16,18,20,22,24,26,28,30,32,34,36,38,40,42,44,46,48,50,52,54,56,58,60,62,-1,-1,-1,-1,-1,-1,-1,-1,-1,-1,-1,-1,-1,-1,-1,-1,-1,-1,-1,-1,-1,-1,-1,-1,-1,-1,-1,-1,-1,-1,-1,-1],"split_conditions":[2.07E2,6.130453E0,6.42E2,8.18E1,6.5503435E0,3.66E2,1.30005E3,1.85E1,1.342E2,2.815646E6,6.992461E0,2.732E2,4.89E2,8.8052106E2,2.55E3,1.06E1,5.365E1,1.13012375E2,1.7137262E2,1.885568E1,6.1888003E0,1.0659805E1,3.065E1,2.7013834E2,3.3778103E1,1.5043284E1,2.0369E4,2.0369E4,1.042E3,1.735E3,4.09689E3,4.363862E-2,3.635658E-2,2.9688165E-2,2.5177194E-2,2.0901017E-2,1.6417803E-2,1.4197786E-2,9.844644E-3,3.316974E-2,3.880732E-2,3.7471794E-2,4.5670457E-2,3.644127E-2,4.6454575E-2,4.668705E-2,4.783259E-2,8.439317E-3,4.102574E-3,1.2664542E-3,5.0494587E-3,-3.9734403E-3,-7.5032347E-4,-1.0318636E-2,-5.8970046E-3,-1.4874051E-2,-1.119824E-2,-1.5857814E-2,-1.860313E-2,-2.1119978E-2,-2.4522686E-2,-2.7946297E-2,-3.0907003E-2],"split_indices":[1,16,1,1,16,1,3,1,1,4,16,3,1,6,2,3,1,8,8,5,16,5,1,8,11,11,4,4,2,1,7,0,0,0,0,0,0,0,0,0,0,0,0,0,0,0,0,0,0,0,0,0,0,0,0,0,0,0,0,0,0,0,0],"split_type":[0,0,0,0,0,0,0,0,0,0,0,0,0,0,0,0,0,0,0,0,0,0,0,0,0,0,0,0,0,0,0,0,0,0,0,0,0,0,0,0,0,0,0,0,0,0,0,0,0,0,0,0,0,0,0,0,0,0,0,0,0,0,0],"sum_hessian":[1.0962861E6,6.4287925E5,4.534069E5,4.8404456E5,1.5883467E5,2.646394E5,1.887675E5,2.3545264E5,2.4859192E5,4.211606E4,1.1671862E5,1.4387608E5,1.2076333E5,1.0162248E5,8.714503E4,1.5967348E4,2.194853E5,1.3417197E5,1.1441995E5,3.1604299E4,1.0511759E4,1.8639877E4,9.8078734E4,7.711833E4,6.675776E4,6.538018E4,5.5383145E4,5.5383336E4,4.623914E4,4.974146E4,3.740357E4,6.8968765E3,9.070472E3,1.23504414E5,9.598088E4,8.947517E4,4.469679E4,7.168798E4,4.273198E4,1.8777264E4,1.2827034E4,5.6748896E3,4.8368696E3,6.673619E3,1.1966259E4,7.8474836E4,1.9603902E4,6.042741E4,1.669092E4,4.7871258E4,1.8886496E4,3.0347268E4,3.503291E4,1.2955229E4,4.2427918E4,1.3615901E4,4.1767434E4,2.4516402E4,2.172274E4,2.5094215E4,2.4647246E4,1.7858402E4,1.954517E4],"tree_param":{"num_deleted":"0","num_feature":"26","num_nodes":"63","size_leaf_vector":"1"}},{"base_weights":[2.5079522E-1,-1.5446295E-1,5.241465E-1,-1.7320765E-2,-5.417402E-1,3.6207348E-1,7.0500207E-1,-1.2515287E-1,8.660961E-2,-3.2742417E-1,-6.260216E-1,2.6921934E-1,4.4710103E-1,6.2207496E-1,7.989365E-1,-4.175027E-1,-1.0349446E-1,3.3714987E-2,1.3181134E-1,-2.8180054E-1,-4.3123534E-1,-1.0139396E-1,-6.3873714E-1,2.7158344E-1,-3.3877026E-2,4.036585E-1,4.9288142E-1,5.790939E-1,6.675456E-1,7.5471437E-1,8.466224E-1,-9.248561E-3,-2.4184486E-2,-3.341209E-3,-7.951146E-3,-2.4129169E-3,2.696167E-3,9.219351E-3,5.430754E-3,-1.0947708E-2,-1.8620249E-2,-2.8778056E-2,-1.9801592E-2,3.0865506E-4,-2.4783814E-2,-2.7018229E-2,-3.230792E-2,1.1257577E-2,1.5318431E-2,2.0222537E-2,-3.5815842E-2,2.3646647E-2,2.576527E-2,2.778393E-2,3.0124022E-2,3.2365747E-2,3.4512263E-2,3.664888E-2,3.8574114E-2,4.119325E-2,4.367472E-2],"categories":[],"categories_nodes":[],"categories_segments":[],"categories_sizes":[],"default_left":[0,0,0,0,0,0,0,0,0,0,0,0,0,0,0,0,0,0,0,0,0,0,0,0,0,0,0,0,0,0,0,0,0,0,0,0,0,0,0,0,0,0,0,0,0,0,0,0,0,0,0,0,0,0,0,0,0,0,0,0,0],"id":30,"left_children":[1,3,5,7,9,11,13,15,17,19,21,23,25,27,29,31,33,35,37,39,41,43,45,47,-1,49,51,53,55,57,59,-1,-1,-1,-1,-1,-1,-1,-1,-1,-1,-1,-1,-1,-1,-1,-1,-1,-1,-1,-1,-1,-1,-1,-1,-1,-1,-1,-1,-1,-1],"loss_changes":[1.2118857E5,2.3404715E4,1.91495E4,3.6470938E3,2.0813594E3,2.7201484E3,2.4046719E3,1.0112544E3,3.962025E2,1.539458E2,5.516953E2,3.6881445E2,3.574961E2,3.20125E2,3.0465625E2,1.6945251E2,3.0278198E2,1.26496315E2,1.0895215E2,1.2861133E2,5.0222046E1,8.30639E1,5.8597656E1,2.652793E2,0E0,8.217676E1,3.8927734E1,4.5833984E1,3.614453E1,2.6816406E1,4.1867188E1,0E0,0E0,0E0,0E0,0E0,0E0,0E0,0E0,0E0,0E0,0E0,0E0,0E0,0E0,0E0,0E0,0E0,0E0,0E0,0E0,0E0,0E0,0E0,0E0,0E0,0E0,0E0,0E0,0E0,0E0],"parents":[2147483647,0,0,1,1,2,2,3,3,4,4,5,5,6,6,7,7,8,8,9,9,10,10,11,11,12,12,13,13,14,14,15,15,16,16,17,17,18,18,19,19,20,20,21,21,22,22,23,23,25,25,26,26,27,27,28,28,29,29,30,30],"right_children":[2,4,6,8,10,12,14,16,18,20,22,24,26,28,30,32,34,36,38,40,42,44,46,48,-1,50,52,54,56,58,60,-1,-1,-1,-1,-1,-1,-1,-1,-1,-1,-1,-1,-1,-1,-1,-1,-1,-1,-1,-1,-1,-1,-1,-1,-1,-1,-1,-1,-1,-1],"split_conditions":[1.342E2,6.130453E0,4.89E2,6.865E1,6.5503435E0,2.4935E2,1.08E3,1.73E1,9.49E1,2.7489306E-3,-7.577912E0,6.15585E0,3.3947964E2,6.76E2,1.9656603E3,-4.1147985E0,-4.3975195E-4,-5.4093146E0,-2.8066529E-2,-6.513308E-1,-6.62122E-1,6.992461E0,-7.0689144E0,1.7555E2,-3.3877026E-2,5.906084E0,4.0453732E2,5.596E2,8.3643634E2,1.372E3,3.6569211E3,-9.248561E-3,-2.4184486E-2,-3.341209E-3,-7.951146E-3,-2.4129169E-3,2.696167E-3,9.219351E-3,5.430754E-3,-1.0947708E-2,-1.8620249E-2,-2.8778056E-2,-1.9801592E-2,3.0865506E-4,-2.4783814E-2,-2.7018229E-2,-3.230792E-2,1.1257577E-2,1.5318431E-2,2.0222537E-2,-3.5815842E-2,2.3646647E-2,2.576527E-2,2.778393E-2,3.0124022E-2,3.2365747E-2,3.4512263E-2,3.664888E-2,3.8574114E-2,4.119325E-2,4.367472E-2],"split_indices":[1,16,1,1,16,1,1,0,1,14,15,16,5,2,5,15,14,15,14,12,12,16,15,1,0,16,5,2,7,1,6,0,0,0,0,0,0,0,0,0,0,0,0,0,0,0,0,0,0,0,0,0,0,0,0,0,0,0,0,0,0],"split_type":[0,0,0,0,0,0,0,0,0,0,0,0,0,0,0,0,0,0,0,0,0,0,0,0,0,0,0,0,0,0,0,0,0,0,0,0,0,0,0,0,0,0,0,0,0,0,0,0,0,0,0,0,0,0,0,0,0,0,0,0,0],"sum_hessian":[1.0939768E6,4.4066597E5,6.5331075E5,3.2542712E5,1.15238836E5,3.445482E5,3.0876256E5,1.5971547E5,1.6571166E5,3.2528432E4,8.27104E4,1.6469623E5,1.7985197E5,1.6399348E5,1.447691E5,1.1014956E4,1.4870052E5,7.635893E4,8.9352734E4,2.2599822E4,9.928608E3,1.9574375E3,8.075296E4,1.6428672E5,4.095178E2,9.228731E4,8.756466E4,8.431174E4,7.968174E4,7.512132E4,6.9647766E4,2.4414229E3,8.573533E3,8.955906E4,5.914145E4,1.510114E4,6.125779E4,2.7351656E4,6.2001074E4,1.3345995E4,9.253827E3,1.9438683E3,7.98474E3,1.5386511E3,4.1878638E2,5.669826E3,7.508314E4,7.036699E4,9.391973E4,9.222271E4,6.459694E1,4.6351883E4,4.1212773E4,4.214232E4,4.216942E4,4.214773E4,3.753401E4,3.2733152E4,4.2388168E4,3.7728125E4,3.1919643E4],"tree_param":{"num_deleted":"0","num_feature":"26","num_nodes":"61","size_leaf_vector":"1"}},{"base_weights":[-6.477788E-1,-6.485314E-1,-3.203002E-2,-6.4944816E-1,-3.2228332E-2,-3.238283E-2,-3.2496255E-2],"categories":[],"categories_nodes":[],"categories_segments":[],"categories_sizes":[],"default_left":[0,0,0,0,0,0,0],"id":31,"left_children":[1,3,-1,5,-1,-1,-1],"loss_changes":[4.1875E0,2.375E0,0E0,1.25E-1,0E0,0E0,0E0],"parents":[2147483647,0,0,1,1,3,3],"right_children":[2,4,-1,6,-1,-1,-1],"split_conditions":[6.5503435E0,7.55E2,-3.203002E-2,5.34E1,-3.2228332E-2,-3.238283E-2,-3.2496255E-2],"split_indices":[16,0,0,3,0,0,0],"split_type":[0,0,0,0,0,0,0],"sum_hessian":[8.464091E5,7.660129E5,8.039624E4,6.2201344E5,1.439994E5,1.3106401E5,4.9094944E5],"tree_param":{"num_deleted":"0","num_feature":"26","num_nodes":"7","size_leaf_vector":"1"}},{"base_weights":[2.5068897E-1,5.3278625E-1,-1.4023389E-1,4.3000475E-1,8.42942E-1,2.2889184E-2,-3.8059333E-1,5.3483605E-1,3.0619133E-1,7.069011E-1,8.923625E-1,1.0768739E-1,-7.864439E-2,-2.7719605E-1,-5.0263774E-1,6.0874164E-1,4.8580447E-1,3.584988E-1,2.4331565E-1,6.779517E-1,7.9356563E-1,8.268736E-1,9.0483385E-1,1.5068255E-1,4.9000192E-2,-3.0719193E-2,-1.2521997E-1,-2.2766997E-1,-3.3266255E-1,-4.4133604E-1,-5.73206E-1,3.9715353E-2,2.9260168E-2,2.2159144E-2,2.6085718E-2,1.5347813E-2,1.9079529E-2,1.3439218E-2,9.391694E-3,3.156687E-2,3.7312083E-2,3.620809E-2,4.3693434E-2,3.5296228E-2,4.473623E-2,4.501037E-2,4.5975666E-2,9.006344E-3,5.081582E-3,-5.6872005E-4,3.372943E-3,-3.8090025E-3,-4.683878E-4,-9.380747E-3,-5.4254713E-3,-1.4041101E-2,-1.047122E-2,-1.5400778E-2,-1.8107811E-2,-2.0630192E-2,-2.3766225E-2,-2.6673956E-2,-3.01586E-2],"categories":[],"categories_nodes":[],"categories_segments":[],"categories_sizes":[],"default_left":[0,0,0,0,0,0,0,0,0,0,0,0,0,0,0,0,0,0,0,0,0,0,0,0,0,0,0,0,0,0,0,0,0,0,0,0,0,0,0,0,0,0,0,0,0,0,0,0,0,0,0,0,0,0,0,0,0,0,0,0,0,0,0],"id":32,"left_children":[1,3,5,7,9,11,13,15,17,19,21,23,25,27,29,31,33,35,37,39,41,43,45,47,49,51,53,55,57,59,61,-1,-1,-1,-1,-1,-1,-1,-1,-1,-1,-1,-1,-1,-1,-1,-1,-1,-1,-1,-1,-1,-1,-1,-1,-1,-1,-1,-1,-1,-1,-1,-1],"loss_changes":[1.2056052E5,2.0242531E4,1.7966492E4,6.190461E3,1.0620078E3,2.3502944E3,2.3376406E3,9.3560156E2,7.191211E2,1.0514453E2,9.39375E1,3.7532092E2,2.7729517E2,2.754331E2,3.6730664E2,4.4944922E2,2.3741797E2,1.4195801E2,1.4028125E2,1.0006055E2,5.8117676E1,1.5166211E2,5.78125E0,1.2397339E2,7.0095825E1,5.9431683E1,6.566858E1,5.132715E1,3.4277832E1,4.4210938E1,4.6695312E1,0E0,0E0,0E0,0E0,0E0,0E0,0E0,0E0,0E0,0E0,0E0,0E0,0E0,0E0,0E0,0E0,0E0,0E0,0E0,0E0,0E0,0E0,0E0,0E0,0E0,0E0,0E0,0E0,0E0,0E0,0E0,0E0],"parents":[2147483647,0,0,1,1,2,2,3,3,4,4,5,5,6,6,7,7,8,8,9,9,10,10,11,11,12,12,13,13,14,14,15,15,16,16,17,17,18,18,19,19,20,20,21,21,22,22,23,23,24,24,25,25,26,26,27,27,28,28,29,29,30,30],"right_children":[2,4,6,8,10,12,14,16,18,20,22,24,26,28,30,32,34,36,38,40,42,44,46,48,50,52,54,56,58,60,62,-1,-1,-1,-1,-1,-1,-1,-1,-1,-1,-1,-1,-1,-1,-1,-1,-1,-1,-1,-1,-1,-1,-1,-1,-1,-1,-1,-1,-1,-1,-1,-1],"split_conditions":[1.955E2,6.130453E0,6.19E2,8.665E1,6.5503435E0,3.5165E2,1.30005E3,4.29E1,1.3355225E2,2.815646E6,6.992461E0,2.732E2,4.6045E2,8.66E2,2.410621E3,1.46E1,-7.790232E-2,-2.9819274E-2,1.8038277E2,1.885568E1,6.1888003E0,1.0659805E1,2.675E1,2.3642279E2,1.9156E4,3.5912E4,1.7446E4,2.0369E4,1.05948E3,1.703E3,3.6569211E3,3.9715353E-2,2.9260168E-2,2.2159144E-2,2.6085718E-2,1.5347813E-2,1.9079529E-2,1.3439218E-2,9.391694E-3,3.156687E-2,3.7312083E-2,3.620809E-2,4.3693434E-2,3.5296228E-2,4.473623E-2,4.501037E-2,4.5975666E-2,9.006344E-3,5.081582E-3,-5.6872005E-4,3.372943E-3,-3.8090025E-3,-4.683878E-4,-9.380747E-3,-5.4254713E-3,-1.4041101E-2,-1.047122E-2,-1.5400778E-2,-1.8107811E-2,-2.0630192E-2,-2.3766225E-2,-2.6673956E-2,-3.01586E-2],"split_indices":[3,16,2,3,16,3,3,0,6,4,16,3,3,2,5,2,11,14,8,5,16,5,3,8,4,4,4,4,3,3,6,0,0,0,0,0,0,0,0,0,0,0,0,0,0,0,0,0,0,0,0,0,0,0,0,0,0,0,0,0,0,0,0],"split_type":[0,0,0,0,0,0,0,0,0,0,0,0,0,0,0,0,0,0,0,0,0,0,0,0,0,0,0,0,0,0,0,0,0,0,0,0,0,0,0,0,0,0,0,0,0,0,0,0,0,0,0,0,0,0,0,0,0,0,0,0,0,0,0],"sum_hessian":[1.0932374E6,6.350053E5,4.5823206E5,4.7695212E5,1.5805319E5,2.7297497E5,1.852571E5,2.582726E5,2.1867952E5,4.2120992E4,1.1593219E5,1.4874606E5,1.2422891E5,1.0029196E5,8.496514E4,1.0300347E5,1.5526914E5,1.1936922E5,9.9310305E4,3.1580625E4,1.0540364E4,1.8556611E4,9.737558E4,8.5849664E4,6.2896395E4,6.122819E4,6.300072E4,5.2985895E4,4.7306066E4,4.5471742E4,3.94934E4,1.1591154E4,9.141231E4,7.100562E4,8.4263516E4,3.6937086E4,8.243213E4,6.8062586E4,3.1247719E4,1.8775102E4,1.2805523E4,5.6592456E3,4.881119E3,6.672976E3,1.1883635E4,7.4087836E4,2.3287746E4,5.3644957E4,3.2204707E4,1.4727168E4,4.8169223E4,1.9566086E4,4.16621E4,1.3306353E4,4.9694367E4,1.3536802E4,3.9449094E4,2.5776686E4,2.152938E4,2.4648344E4,2.0823398E4,1.6989137E4,2.250426E4],"tree_param":{"num_deleted":"0","num_feature":"26","num_nodes":"63","size_leaf_vector":"1"}},{"base_weights":[2.4190134E-1,-1.4782602E-1,5.024893E-1,-1.488372E-2,-5.3217906E-1,3.4029868E-1,6.69855E-1,-1.3384409E-1,7.450344E-2,-3.189185E-1,-6.1741376E-1,2.553142E-1,4.1986886E-1,5.871272E-1,7.663452E-1,-4.3268797E-1,-1.1292688E-1,2.598794E-2,1.3386579E-1,-2.538505E-1,-3.9214396E-1,-5.084699E-1,-6.390439E-1,2.5761372E-1,-3.3411253E-2,3.8062635E-1,4.6310848E-1,5.441032E-1,6.326039E-1,7.219419E-1,8.171396E-1,-2.6735688E-2,-1.7765572E-2,-3.7929737E-3,-8.429595E-3,3.1532647E-4,4.748143E-3,8.071716E-3,4.6261284E-3,-9.262761E-3,-1.8046493E-2,-1.7043268E-2,-2.3132253E-2,-1.621124E-2,-3.079862E-2,-3.175559E-2,-3.2295354E-2,1.0925421E-2,1.485387E-2,1.906894E-2,-3.5607006E-2,2.561812E-2,2.2352478E-2,2.8372273E-2,2.5775595E-2,3.4075376E-2,3.1042758E-2,3.5004012E-2,3.731491E-2,3.9692406E-2,4.2197943E-2],"categories":[],"categories_nodes":[],"categories_segments":[],"categories_sizes":[],"default_left":[0,0,0,0,0,0,0,0,0,0,0,0,0,0,0,0,0,0,0,0,0,0,0,0,0,0,0,0,0,0,0,0,0,0,0,0,0,0,0,0,0,0,0,0,0,0,0,0,0,0,0,0,0,0,0,0,0,0,0,0,0],"id":33,"left_children":[1,3,5,7,9,11,13,15,17,19,21,23,25,27,29,31,33,35,37,39,41,43,45,47,-1,49,51,53,55,57,59,-1,-1,-1,-1,-1,-1,-1,-1,-1,-1,-1,-1,-1,-1,-1,-1,-1,-1,-1,-1,-1,-1,-1,-1,-1,-1,-1,-1,-1,-1],"loss_changes":[1.1073994E5,2.232612E4,1.7738312E4,3.4521663E3,2.0409375E3,2.2440625E3,2.5667344E3,8.7061206E2,5.3384753E2,1.5268555E2,1.887207E2,3.4097754E2,2.9064453E2,3.3844922E2,3.3422656E2,7.173523E1,2.6858264E2,1.3847075E2,9.500049E1,1.2466699E2,5.4379883E1,2.631233E2,1.3964844E0,2.4697559E2,0E0,7.415234E1,6.4265625E1,5.9095703E1,4.79375E1,4.1660156E1,4.258203E1,0E0,0E0,0E0,0E0,0E0,0E0,0E0,0E0,0E0,0E0,0E0,0E0,0E0,0E0,0E0,0E0,0E0,0E0,0E0,0E0,0E0,0E0,0E0,0E0,0E0,0E0,0E0,0E0,0E0,0E0],"parents":[2147483647,0,0,1,1,2,2,3,3,4,4,5,5,6,6,7,7,8,8,9,9,10,10,11,11,12,12,13,13,